GNU Backgammon 1.01
250 128 5 0 0.1000000 1.0000000
-3.2630785
-2.5951145
1.2166669
3.9571550
-0.6251975
-0.9514757
6.7359786
0.1843251
-2.2232103
-2.6085324
0.5113356
0.5699041
-0.4588919
-3.5076666
-0.5302894
-0.1171034
3.0299737
-2.6685348
-1.2139442
-7.5429077
-1.5058811
-2.5029807
-1.7715229
-0.1214760
-0.8260607
-1.8209642
-2.7298121
-4.4525237
1.2649674
-2.5277421
0.4372739
24.0655594
-0.0538021
-0.5263628
-0.1272734
0.7758872
-3.0779676
0.5612360
-0.9533053
-7.2029672
0.0523563
7.1035948
1.8091669
-0.4401488
-3.1030889
0.2037937
4.7141414
-6.3457141
-0.2667190
1.8956021
-2.9971378
1.0577508
-1.7704699
0.4918472
1.4956863
-1.6156567
1.1246160
0.4308738
1.6801161
-1.5325040
2.3667657
-2.0572004
-1.2046926
-0.3633396
-2.3653119
-3.4910989
2.7990646
-0.2579477
-1.6445107
-1.8153435
-1.4301842
-2.3514256
-2.5402114
0.0302004
-6.3121862
0.2676840
-1.1553664
-7.1764264
-4.1949697
2.1605790
15.0099831
-1.2176555
-3.7875445
-0.6525487
1.7469025
-5.1358514
-2.2538991
5.9926271
0.8604234
0.5465414
10.2534781
2.0343356
-0.8529384
-2.3475235
-2.2634652
-1.7471613
-2.6538734
-0.3545569
-1.3986638
0.0446277
-0.5583611
-1.7118865
-7.9818878
1.2890155
-0.7898102
0.0497389
0.0953465
-0.0486736
-0.6482612
1.7374216
-0.0174016
0.5086141
1.5396509
0.6532667
0.3555358
-0.4300672
12.7855902
-5.8876638
0.5931880
-2.1604097
-2.4369991
0.4011405
2.3036582
-6.3999891
1.6628745
1.6463131
0.1707394
-2.0337164
-3.1058383
-6.3096876
-2.5100851
8.0499144
-1.3482034
1.2425112
10.5055542
-1.1845516
-2.5500426
-3.8983185
1.6287246
-0.7536786
-4.4073005
-5.2089429
5.1754742
-5.4377875
1.2492975
-2.6778760
-4.8266559
-12.3614492
-6.8107138
-7.3189025
-2.8740058
-3.9860218
-7.6302476
-15.4823313
0.6710127
3.0451810
3.4049799
-1.8168724
2.8310425
42.1161690
-0.0395632
-4.5432930
-0.6340613
1.0366423
-4.5067611
-2.4498670
-2.2900300
0.9284374
-1.7677927
11.6659088
2.9213586
-4.3220992
-5.3598018
-6.0912819
7.5946040
-15.4589834
0.5073658
2.3336170
-4.5381570
4.4572787
-3.4337077
1.2284665
3.0709970
-6.2781539
0.0838783
-2.1259453
2.3516777
-1.3189969
5.6256533
-1.3297201
-4.3402395
-1.3851031
-4.2918329
-7.5131836
3.6709931
0.1062456
-0.8351016
-31.3088512
-3.3755195
-2.4120088
1.8324236
-0.6262449
-13.1985493
-0.3824441
-1.0558372
-16.2764168
-9.4082432
2.8565741
26.5271606
-2.2241261
-2.1969337
-2.0563855
2.9330664
-2.6047828
-9.0618668
10.9698467
3.2951052
2.7795208
11.7952118
2.6313212
-1.9856031
-4.3031573
-3.3352208
-2.8693008
-5.6561165
0.6025390
-2.3317952
-3.6431081
4.7899857
-8.2875891
4.4635215
1.8374455
4.6022029
-2.0385535
-0.4321131
0.3360066
-2.9743879
2.4040616
0.4208915
0.2709796
3.6448236
2.4359546
-1.1119783
-3.5614297
18.6617222
-10.5862255
2.5573199
-3.2791615
-2.5862656
-0.3052702
1.6269001
-5.4542656
-0.4094180
2.8937776
0.5152699
-2.7423477
-5.0878468
-6.8499322
-1.6971900
8.6603813
-1.7650293
-0.4747723
14.8105650
-1.6418247
-4.4642572
-7.9011884
0.5447897
-1.9128567
-6.2489843
-12.4232244
5.8086238
-5.9435930
3.2702150
-5.6314664
-7.7710838
-23.0926208
-7.0152597
-10.7889557
-5.2382989
-5.8727946
-8.7192383
-22.0594120
-1.5548539
-0.8294895
3.9576449
-3.7161765
3.0952578
59.0419540
-0.3323484
-7.5450006
-0.8469557
1.5791932
-7.1431527
-2.6942887
-4.0689030
-3.9524148
-2.4430149
13.6612701
-2.6168084
-5.7734971
-8.5375252
-10.3404055
11.0774517
-20.1372070
0.5623002
4.2363162
-6.7209606
5.1430221
-6.3066878
1.9797844
3.5543795
-9.8203344
0.3879169
-2.3241653
3.8682206
-2.0226176
7.9044962
-3.5998201
-6.0741992
-2.7376642
-6.7065444
-12.3165426
2.1409819
-0.6809424
-2.4449131
-20.5031319
-5.7468371
-4.4607601
-0.6125760
-1.8577477
-22.0466423
-0.2468694
-3.1413484
-25.6338329
-16.2756901
5.0019822
38.8889999
-3.9704494
-8.3524342
-2.6086750
5.1589279
-3.6595118
-7.9090681
15.8941593
5.2237401
1.2552146
19.2969074
3.7291994
-2.7689617
-7.1009879
-5.4128013
-5.6142273
-8.6701689
0.0584597
-4.0482116
-4.3158994
6.5374980
-7.5714965
3.3788040
3.4952204
5.9575973
-2.8278754
-0.7237384
0.7058963
-2.8662474
2.8751163
-0.7646383
-0.4315735
3.9433653
0.2613437
-2.2470028
-7.0392361
30.7644882
-19.3716850
3.7650948
-6.2408452
-5.4633589
-0.9318150
0.3158310
-14.6941957
-0.0449143
4.3314404
1.4705060
-3.9919667
-4.6459689
-4.0942254
1.1397423
1.6416653
-0.6922868
-2.9235933
8.4803190
-2.5300605
-3.9472506
-7.6773767
-0.8747015
-1.6674008
0.6309687
-15.0074139
2.0123539
-0.7204044
3.3367209
-7.5401001
-8.7539253
-6.1119204
0.7945973
-8.9433565
-3.6900184
-2.4723642
-3.3535130
2.1885962
-4.2780032
-7.2003694
1.1259183
-6.8492599
0.8129429
31.0650291
0.0459426
-6.0336552
-0.4819881
-0.2601428
-3.6533270
0.9873478
-2.5192959
-11.6411810
-2.1175542
3.7186193
-8.1632929
-1.8914746
-7.6849136
-13.8308687
6.4993782
-5.4332304
0.1099890
2.4559636
-2.6654952
2.1432886
-2.6160412
1.7895638
0.1262171
-4.9476628
0.2370670
-0.4088812
1.9959936
-2.1919758
5.0637975
-3.3674047
-2.3388391
-2.8112092
-3.4248948
-8.9591637
-0.0469778
-1.5939610
-3.3097262
-1.3017056
4.7461748
-3.8278151
-4.5620975
-3.3333013
-18.6857948
0.7996172
-4.3583612
-11.2459249
-13.9668989
3.9767509
22.7412319
-3.7854567
-13.2272139
-0.2647592
2.5308738
-2.4053526
-1.2433414
10.0447960
2.3923366
-2.4904082
18.4876633
3.0219610
-1.3933357
-6.1279283
-2.6869621
-5.4564686
-5.7349434
-0.7540606
-3.1545348
-3.5696001
2.3265460
-13.4674873
-1.8609520
2.9407694
2.8184693
-2.3759668
-0.8191799
-1.7786224
-1.1238667
-1.1746341
-1.7894074
-1.4119470
1.7188197
-3.2814829
0.4926389
-9.1734533
23.6400604
-15.9694376
-0.2505890
-6.1906457
-6.3870330
0.0944191
-1.8356328
-14.5566864
0.7254740
2.4560742
1.6228774
-2.4422598
-2.8294284
-2.3935051
1.2638731
3.2986772
-0.9368540
-0.7692054
5.4614077
-0.7560355
-1.7008040
-3.4722555
0.8746986
1.9799964
-0.8874362
-2.9372628
-0.2640986
0.1989908
3.0715508
-2.6945579
-0.4998630
-5.3839517
-1.5984514
-2.2482030
-1.4086845
-0.3338858
-0.5033299
-0.7297831
-2.0393949
-4.2430930
1.5572128
-1.9440516
-2.0082173
22.1618977
0.2252402
-0.2223777
0.3836547
0.6733524
-2.6135700
0.9757100
-1.8417592
-5.3979731
-0.0885181
5.3952827
1.6441537
-0.4864500
-2.6838369
1.4318429
3.7457678
-6.3254213
0.1816457
1.9538301
-2.2236679
0.2811757
-1.8099242
0.5789543
1.0532296
-1.2640436
1.1723363
0.6023179
0.7637220
-1.1811800
1.9022859
-1.9172381
-0.8663096
0.0777739
-1.6136291
-2.5818310
1.6758199
0.0252557
-2.3863046
-2.0046256
-1.5301957
-1.2536548
-3.4186914
0.3754251
-4.7303815
0.5633305
-1.4196337
-8.0583448
-3.9260030
2.0134153
16.4253902
-0.2915777
-3.2241843
-0.8747069
1.0747567
-4.7844090
-1.8755101
5.7551312
0.5275332
0.4313366
10.0415936
1.7858360
-1.3449005
-1.9939027
-2.1573937
-1.4184620
-2.7521718
0.2926398
-1.2720952
-0.5681263
-0.7131932
-2.3026576
-14.1354141
1.2063597
0.0289390
0.4386136
-0.1812319
-0.9522309
-0.5219580
1.3343263
0.2986618
0.2235422
1.3404362
1.0097052
-0.4786549
-0.1981751
12.3161650
-4.4035659
0.4865953
-1.9570175
-1.2084135
0.5105437
3.4533312
-4.5701079
0.9119594
1.4998504
0.3580139
-2.2178991
-1.5010413
-6.6187878
-2.7691171
8.1469479
-1.9439902
2.1241381
10.3181534
-2.1499820
-1.5427547
-4.9045830
1.4968539
2.3078668
-1.3043075
-4.0913897
4.9921727
-4.4911809
1.0515767
-2.0905650
-4.8183150
-9.4784956
-6.3244486
-6.4237404
-2.4870143
-4.1026425
-7.6901908
-9.3467751
2.2027981
2.4145923
3.5375926
-0.6306841
-0.3110920
36.9426956
-0.0943293
-4.7490816
0.1494192
1.6211350
-3.7916455
-3.0708570
-2.6915023
2.2443631
-1.2073616
10.3533745
3.9852355
-3.5724168
-4.4471121
-4.4142456
7.1000085
-8.6331062
0.5163687
2.5492308
-3.9872739
3.0358384
-3.1196651
1.5411322
2.3277895
-5.2430434
0.2084942
-2.3964007
2.0706546
-0.1164718
5.2166228
-0.5966008
-4.7254791
-0.6039162
-3.0336480
-5.9580431
1.4984343
-0.0775665
-1.4929134
-0.4910687
-5.1872692
-2.3446834
1.2435849
0.0146745
-10.3647633
-0.5548275
-1.2533560
-3.2880685
-8.8386755
1.5762343
26.5769978
-1.5070933
-0.5769849
-1.6752416
1.0113689
0.8615211
-5.6718097
10.7002029
3.7741058
1.6230103
11.9668293
2.0927026
-2.4607520
-1.4089237
-2.7496259
-2.3111591
-5.9598398
1.0001613
-2.9026682
-3.1748750
3.5489173
-7.0563455
4.9231076
1.7092379
5.0493946
-1.2161922
-0.3813125
-3.9192576
-3.0459149
0.5599936
0.9276856
0.2727137
3.5213120
3.1458962
-0.3636478
-2.2698934
18.8384609
-7.8077197
1.7760811
-2.6569142
-4.4967451
0.3128172
4.1418805
-2.3000829
-0.8575351
2.9974909
0.9091890
-2.6193674
-2.7940993
-8.8552923
-2.0121009
10.4761419
-2.1126785
1.0995966
14.4714785
-2.2835598
-3.0521243
-8.0188465
1.1644287
1.5563089
-5.7073970
-8.9296694
6.0082426
-5.0469761
3.1111438
-4.2953358
-7.4027104
-18.9079189
-7.9214282
-9.7550039
-4.5744467
-5.5824599
-9.0296116
-18.9267235
0.3573261
-1.0531030
4.6702847
-2.7764366
-0.3994407
55.9067459
0.1298990
-7.0360775
0.1574293
1.8961326
-6.5209327
-3.1027436
-4.0736742
-6.6164432
-2.0407848
14.3170567
2.2801957
-4.1807208
-7.0642185
-3.6554751
10.0988550
-17.1808567
0.9844744
4.1523914
-6.2204242
3.2107689
-5.3351331
2.2930369
2.5905700
-8.4462910
0.3401747
-2.5869954
3.2466502
-0.5153241
7.8384590
-2.3036509
-6.0153313
-1.2047865
-5.0604138
-9.5248470
1.1382846
-0.7369633
-3.0200803
-2.1040695
-6.9782224
-4.1608539
-1.1136048
-0.7082337
-16.5092392
0.0441766
-2.7934563
-12.3414450
-14.6125698
3.7942946
40.2433167
-2.6006005
-4.2485795
-2.4096508
2.9965525
-0.9204491
-5.2888761
15.5310717
5.4585414
0.7951001
19.9292545
3.4797461
-3.0020809
-4.2016730
-4.6944995
-3.9646513
-8.8280411
1.0460253
-4.3262362
-3.9784539
5.1469517
-8.4060631
4.0292649
3.5462968
6.4985685
-2.2025826
0.0090490
-2.9316452
-3.6423280
0.7144063
-0.0090364
0.0520647
5.0537825
2.4977748
-1.9258285
-5.0977101
29.8270912
-14.7827768
2.6632953
-5.2063503
-8.4354372
-0.3281663
4.1066818
-8.0534286
-0.4995272
4.1850810
1.6080188
-4.0003920
-3.0984399
-2.8722312
1.4135040
2.7763340
-0.7804693
-2.6521893
7.8222136
-1.5255084
-3.1492527
-7.2099376
-0.8554603
-2.7278955
-6.5777593
-13.6012888
2.1851361
-1.4100057
3.5383439
-7.3621888
-6.4421806
-13.6721182
-3.2524238
-7.7066927
-4.6646824
-1.4675515
-3.1990721
-5.3285861
-8.9277191
-7.8845968
0.4794999
-4.4654670
1.1818134
29.0928059
0.3904020
-5.2422423
-0.1580284
-0.1101544
-3.5654628
0.8219844
-2.6573362
-9.9330320
-2.4598930
5.2993445
-6.4318285
-1.5800006
-5.7565513
-7.3140278
5.9716072
-4.6690302
-0.4855048
2.4667454
-3.4810009
0.7671294
-3.1265044
1.9306943
1.1686836
-5.2136216
0.4029596
-0.2051128
2.3812556
-0.4455507
4.9782438
-4.7514892
-1.6353531
-2.5423648
-2.7368572
-8.1098709
-0.8902031
-1.8994613
-3.8808901
-5.1512084
-5.9711323
-3.6247344
-4.0571589
-3.5566766
-12.8409147
1.5688566
-6.5047984
-24.3427525
-13.3364296
4.2534261
23.4197140
-3.8237803
-12.7661734
0.0668257
2.9873068
0.5479861
-2.2373109
9.8649178
1.3280201
-2.4428096
15.7888269
2.9770613
-1.3742387
-4.6164637
-3.8154240
-6.1179380
-5.4659343
-2.2490375
-3.7560949
-3.4654675
3.0761731
-6.0079789
-1.1705616
2.6429245
2.1995642
-2.2879882
-0.4025489
-1.5835537
-0.5991306
1.4911271
-2.6674914
-1.5450244
0.7106628
-3.3575132
0.0955474
-8.6449184
23.8939018
-15.6500807
1.1382338
-5.9222693
-2.9074616
-0.4107440
-2.5373902
-15.5931149
1.2316717
2.5815139
1.5000461
-4.2004447
-2.1971877
-2.6141191
1.2101640
3.3829279
-1.4535410
-0.0085974
4.9316478
-1.3727218
-0.6902640
-4.1647816
1.4131672
0.8871522
-0.3201621
-2.5928504
-0.7685314
-0.4948182
2.9706120
-1.3037444
-0.5658464
-3.5897501
-1.3409342
-1.7652336
-0.8614082
-0.7442642
-0.3771860
0.3338196
-0.6651455
-4.8174067
1.6942208
-2.5252728
-4.4891109
20.9714413
-0.3350453
0.4030088
1.0980545
0.9915413
-2.1277769
0.5058218
-3.2590034
-3.4176188
0.1093220
4.9560142
0.7608551
-1.3772895
-1.9236430
0.5321200
3.5116787
-4.4266315
-0.2273422
1.5616851
-1.3799946
-0.6522825
-1.8941518
0.6602320
1.0752617
-0.8011289
0.7114565
0.5811698
0.4651424
-1.2412008
0.8188938
-1.6074874
-1.4957505
0.2561871
-0.8216842
-1.7721344
0.5750757
-0.0007013
-2.0491438
-1.5659816
-3.8443749
0.0158803
-4.1137052
1.0463433
-3.3680980
-0.1221837
-1.1491922
-6.4906912
-3.5658517
1.5346020
18.7096214
-0.2829136
-2.2710981
-1.3413333
0.6001179
-4.4677258
0.0461623
5.6944947
0.9600857
0.3806743
9.9910831
1.8408016
-1.7752949
-1.2606103
-1.7736027
-0.9710064
-2.8153408
0.1414635
-1.7828156
-0.8884946
-1.0518339
-1.9744319
-28.9577866
1.2332317
0.8392358
0.0862102
-0.4817042
-1.2500314
-0.4272945
0.4719780
0.7306095
0.1233732
1.2794943
1.4838709
-0.4460594
-0.2055990
9.5388126
-3.1145196
0.5900097
-1.3323511
-0.4213253
0.6100612
-2.6088917
-3.5284691
0.6409837
0.9603800
0.3543298
-2.0651748
0.7364463
-5.5954142
-2.7178643
8.3728256
-2.2168450
3.5744665
9.2067680
-2.4732230
-0.2007327
-6.4823384
1.4970785
3.9954677
1.0174793
-3.3721566
5.7416606
-4.5595794
0.9964144
0.5035083
-4.6702828
-6.2001519
-6.5953312
-5.8683963
-1.4963671
-4.0304379
-7.9245882
-7.4994130
5.4656758
3.0564854
3.3992262
-0.3384963
-0.0866315
33.1214867
0.0758507
-4.9560194
0.7557735
2.3760331
-2.9695101
-2.7267427
-3.1096551
-0.9365119
-0.8446810
9.7621107
4.1333489
-4.5618396
-3.3500154
-7.2798753
6.3758140
-3.3927262
0.6149533
2.4325032
-2.9735029
2.7706912
-2.9358323
1.4192649
2.7040949
-3.7447424
0.2401911
-2.2174799
1.9576646
-0.1924181
3.5559340
0.2879217
-4.5509496
0.0551829
-2.2554772
-4.1036496
-0.3635580
-0.1423831
-1.6492302
0.3755102
-6.9061880
-0.8386620
0.0888304
0.8153592
-7.3957705
-0.4725527
-0.6088471
4.5629458
-8.5014830
0.6086998
26.7119961
-1.3130909
1.9494479
-2.0230734
-0.0056482
0.3539625
1.5564666
10.8038673
3.9982693
0.6140798
11.5875731
1.6444498
-2.5527956
0.8798097
-1.8778752
-1.2612734
-5.9185610
1.1776100
-2.8978629
-3.2849243
3.6860285
-4.2383366
3.5875015
2.0169001
6.4981418
-1.8372740
-0.3163142
-7.8922343
-2.9122388
0.6075510
1.3051679
0.2418867
2.9738722
3.7544675
-0.0524816
-1.8455756
18.8100986
-5.5545883
2.0686376
-1.8134732
0.0155939
0.0718623
-2.3172631
-0.9179842
-1.5705004
2.3055544
1.1537424
-2.8002377
1.4929903
-7.6863246
-2.3736897
11.3001080
-2.4810469
3.2270069
13.3365469
-1.9951446
-1.4045982
-9.5960608
1.7703389
3.5564773
-2.6164804
-6.9492083
6.1704516
-5.9805269
2.8238206
-1.3913991
-6.4393182
-13.8953638
-8.8402433
-8.8225079
-3.3421910
-5.2184100
-9.3966970
-17.4227943
5.0728908
-0.0863572
4.5604744
-1.7851589
-1.2138269
49.3823471
0.4508708
-6.6805921
1.0201479
2.6681092
-5.7489629
-2.6625896
-4.0373960
-12.1743670
-1.5256193
14.0797186
4.3122411
-5.3536096
-5.6679192
-9.9348993
9.2969303
-9.0354376
1.0470976
3.9267399
-5.3973236
3.4348745
-5.1331692
1.8414290
2.9192467
-6.2262173
0.4668513
-2.5905180
3.0722766
-1.0031549
6.7108035
-1.1458398
-5.8961363
-0.2245982
-3.9700763
-6.7851944
-0.1157362
0.1179240
-3.2357674
-1.9798318
-8.0659189
-1.7822683
-1.4981154
0.7619355
-11.9856510
0.0653654
-1.9171523
-4.9491081
-13.1470785
2.4995403
41.3355980
-2.4896579
-0.2898487
-2.4502306
1.7297584
-0.9558122
-1.4562016
15.7323256
5.3036122
0.0189249
18.9431725
3.0966656
-3.1672571
0.2460497
-4.0090351
-3.0402358
-8.7053785
1.6244688
-3.9466796
-4.0770693
5.1521211
-5.4680262
1.7873718
3.7980785
8.1157951
-3.5599236
0.1089847
-9.3592176
-3.8220727
1.2032957
0.6826840
0.0525817
4.4873152
4.2539821
-2.6249402
-3.6484628
28.6070309
-11.1955853
3.2972889
-3.7532289
-0.4295067
0.2279795
-1.1341934
-4.7685061
-0.9978490
3.5660622
1.4428874
-4.2385097
-2.7787008
-1.9516691
1.3831712
3.5534816
0.1654471
-1.9369053
7.0677500
-0.9898072
-3.5310230
-6.6094160
-1.8502892
-1.0733106
0.1270736
-8.6475506
1.6880804
-2.7655337
3.5811949
-4.6979113
-3.8355141
-16.5758591
-0.1413772
-6.6629100
-3.7693863
-1.0826708
-2.3686948
-30.8470154
-6.3853488
-4.9023638
1.0248865
-6.0553908
1.0779781
34.2880287
0.6205879
-4.6234765
0.2318162
0.6676472
-4.3148956
1.0743659
-2.3907886
-14.1379318
-2.4271672
5.9856501
-2.2761495
-1.9020849
-3.9509683
-24.5363388
5.1735106
-7.2431784
0.3814516
2.8020694
-4.1950588
0.5329245
-3.1420584
1.0516557
1.1904771
-5.6494765
0.1108806
-0.3187039
2.4843915
-1.4767290
5.2977247
-3.5511348
-1.0899982
-1.8992256
-4.3186836
-7.7010074
-0.1307776
-0.6546961
-3.4516170
-6.3459063
1.7650384
-3.8226752
-4.5520902
-0.2050694
-14.0516129
1.5503992
-4.3283973
-24.9747028
-11.2795563
3.5898571
25.5030041
-2.7571511
-7.9644055
-0.3502910
2.7499142
-17.5683918
-1.6739683
9.5663509
2.7446647
-2.0138912
17.0938740
3.2041609
-1.0366420
-1.2039509
-3.4131939
-3.6907382
-5.4354477
0.0476544
-2.3701653
-2.5447366
1.4108537
-1.1586425
-1.2647429
2.7294014
3.0782800
-2.7149458
-0.1916495
-2.3259339
-0.8799897
2.6674833
-2.2597132
-1.5029353
2.4727314
-2.0373497
-6.8996372
-5.0948529
24.0648384
-11.6427679
0.6033567
-6.3729787
-4.7452750
0.3125747
-0.5296812
-12.7773008
1.2630955
2.1167603
2.1486683
-2.9924889
-1.6555122
-3.3251727
1.3108939
3.1968064
-1.6668493
0.3736165
3.8506639
-2.4588411
0.2303975
-4.4005079
1.1455300
-3.0492187
-1.0760789
-2.0786462
1.9060930
-1.3692743
3.0936539
-1.0462743
-0.9102946
-2.2745230
-1.3359624
-1.4229941
-1.0394936
-0.4501481
-0.3275095
-0.3983202
0.4342790
-5.4372020
2.2332792
-2.0325735
-8.3033161
22.3587170
-0.2239455
0.0983491
1.1014212
0.7584802
-2.0134342
0.9121975
-5.0433459
-2.7381237
-0.0432411
4.3685641
0.2764427
-0.7596357
-2.3904669
-1.3667537
2.6609015
-3.6749444
-0.6189196
1.2053238
-0.6104986
-1.2759581
-1.6028289
0.5884616
1.4542575
-0.8704668
0.4892673
0.4141681
0.0327295
-0.5539690
0.2325681
-1.5152644
-1.3449205
1.0663795
-0.3317944
-0.1841667
0.3103426
0.2051909
-0.5033728
-1.1662564
-4.4336081
0.6609008
-4.6620889
0.8195183
-1.0341128
0.0921293
-1.2199972
-2.5843341
-3.2771475
1.3275245
17.0827522
0.0026859
-1.6440850
-1.5441889
0.0245893
-2.8320441
0.4945618
5.7294474
1.3004414
0.1195605
10.0557117
1.2770308
-1.8259550
-0.8725595
-1.0378499
-1.3253051
-2.6641307
-0.1543676
-2.2943592
-1.1267186
-1.4686852
-2.7429483
-10.2279062
1.9719126
0.7093419
-0.9531396
-0.4264172
-1.0801452
-0.6315277
2.1591971
0.9973966
0.6060714
0.5160768
1.6440268
-0.5984527
-0.4177701
9.1350307
-2.1504517
0.2422655
-1.3164674
0.5248001
1.1195624
-3.3935609
-1.5871694
0.1223989
0.0073593
0.4354451
-2.0855751
-15.8750305
-5.3109794
-2.8908370
8.1440611
-2.3918488
4.4316010
7.5505891
-3.7703886
1.0782628
-7.2627273
0.7059036
1.9188784
3.5800152
-2.1849785
6.1232433
-4.5642247
0.7391185
1.5603670
-5.2096653
-4.0411673
-7.0369396
-5.4658046
-1.1112913
-3.7641284
-8.0406733
-7.8342729
8.3580236
3.9589455
4.0192499
0.0472611
-1.2887354
31.9776363
-0.2137033
-5.3608627
0.9980053
2.8153238
-2.3249719
-2.3411615
-3.7234745
-3.9803452
-0.7456331
9.0372295
3.9089522
-3.3847513
-2.7809327
-7.7970805
5.4617295
-0.7282804
0.6704420
2.2273731
-2.0511403
0.2257859
-2.4994862
1.5293040
3.5722651
-3.1946256
0.4134462
-2.4504168
0.4375412
0.9255285
1.4088526
0.5603209
-4.0151167
1.0946062
-1.9099166
-1.9679513
-1.3931645
0.4451121
-0.7191975
0.1132749
-6.7596955
0.2568071
-0.9612466
1.3557479
-4.2274442
-0.2624012
-0.8702624
11.9887190
-8.0354414
0.2447871
26.3624115
-0.9970303
4.0299549
-2.3426745
-0.8114023
3.8484297
2.5155632
10.5780401
4.9758086
0.1273747
11.2496767
1.1300808
-2.4477522
-0.4322138
-0.8983563
-1.0087211
-5.7984943
1.4538196
-3.7109110
-3.6740153
3.6839066
-4.2528934
2.3363395
1.9261025
7.9635901
-2.7923570
-0.7075984
-5.1618218
-3.4528167
2.9952292
1.3378533
0.4395613
2.4461563
4.0007315
1.7883399
-1.7702104
19.4006119
-4.1122866
1.3073089
-1.5370362
1.2865759
1.0670382
-5.4829955
1.5697722
-2.5466602
1.5949979
1.3541133
-2.7909105
-19.1139469
-6.9381595
-2.3605347
11.3744974
-2.6260967
4.4428582
10.9901390
-3.6944652
0.2719437
-10.3188572
1.0257207
1.3309532
0.4923519
-5.0903001
6.1218348
-6.1589656
2.8798666
-0.9817556
-6.1293836
-9.7630577
-8.6306715
-7.7731876
-2.5258973
-4.6811714
-8.9355202
-10.6068201
8.5944958
1.2073270
5.5783820
-1.5569094
-0.3517807
48.6590195
0.4994762
-7.0214357
1.6349474
3.3229907
-4.7217999
-1.6844815
-3.3538897
-13.5385065
-1.2165393
13.5660191
5.2788558
-3.7779164
-5.2567630
-9.9247437
8.1519938
-5.5860176
1.0712334
3.6937487
-3.7449441
0.5269756
-4.3099008
1.7563884
3.9895692
-4.9659986
0.9240567
-2.8586147
1.3695729
0.2197457
4.6013174
-0.7245649
-5.1019464
1.4244540
-3.0939884
-3.2810934
-0.9645249
0.9663659
-2.2959194
-1.9557813
-6.9063945
0.4463612
-3.0811081
1.8156720
-6.6789050
0.6157660
-1.7708776
3.6731296
-11.9715538
1.5309665
40.5152740
-1.3519130
2.7712677
-2.5651624
0.0541696
2.7893810
0.7446937
15.3614025
6.3986616
-0.5353504
18.8955498
2.1315095
-3.1342757
0.5326484
-2.4750979
-2.1618910
-8.6136465
1.8631569
-4.8143129
-4.2032585
4.6530766
-5.8187943
0.3297781
3.8240521
9.4180412
-4.6256332
-0.1846332
-8.1303825
-4.5864105
4.1384373
0.9470469
0.6089964
3.9633353
5.3418264
0.7702597
-2.8767316
29.7244530
-8.3098125
2.3931420
-3.4053657
1.2793760
2.1652648
-4.9664559
-1.2876770
-3.3230996
3.1608555
1.8503784
-4.0098681
7.2577500
-4.4725814
1.9868691
3.1217394
-0.6881358
-1.3594332
6.4319496
-1.2799528
-2.0939393
-5.8965282
-2.3230627
-1.2214651
-10.7554808
-8.3768892
1.8685349
-1.1947155
4.1307073
-5.4883852
-4.4758439
-14.1252785
-0.9287837
-4.6353951
-4.9988451
-1.0417677
-3.9144397
-2.0432770
-2.5730140
-6.9263525
0.6090559
-3.7013829
1.0977902
28.5129757
0.0867461
-2.2866042
1.1310604
0.2388355
-5.5939960
0.3389938
-1.9374416
-15.8739462
-1.6663262
4.8184156
-0.0106714
-1.6830879
-4.1737375
-5.6839485
4.3922400
-6.7221303
1.1096814
3.0760870
-3.2767296
-0.3634589
-3.2943459
0.5953241
1.4968210
-6.2019005
-0.1880767
-0.2864142
1.8397948
-2.4634953
5.1732183
-2.6506586
-1.7007794
-1.4321139
-2.9507618
-5.5624151
0.3582135
-1.4826978
-2.4703760
-3.2840238
-3.7665548
-1.3310027
-4.6362271
0.8720662
-8.6200762
1.0654541
-2.8316770
-24.0207806
-9.1017456
1.8498256
26.2929382
-2.0552125
-4.9128904
-0.9330269
0.5440956
1.8574480
-1.2020208
9.1022625
3.1350732
-1.9940000
16.4614906
3.3689725
-0.8986520
-4.4031258
-1.8958043
-1.2322750
-5.2417650
0.8455766
-1.7967187
-3.5293453
-0.4114042
-2.8375046
0.1124267
2.9572320
2.3253016
-1.3802084
0.4598669
-2.4144342
-0.4966398
4.7573123
-1.6920533
-1.0793265
2.8224812
-0.5218757
-3.0437031
-2.6983905
21.9937038
-10.4192247
-1.1228112
-5.5598879
-1.8389717
-0.2161390
-0.6041927
-9.3424749
0.3879820
1.7652135
0.8784524
-2.8977947
-1.6948552
-2.2419324
1.3686516
3.1424801
-1.7056286
0.6893230
2.6534007
-2.2661750
0.6061199
-4.6221571
0.7006034
-4.4492712
-1.5324149
-1.4730738
2.9936845
-1.2096967
2.8712630
-0.6124099
-0.8860305
-1.9949245
-1.5671636
-1.3415385
-1.6370401
-0.5731360
-0.5373395
-0.5024185
1.5557277
-5.7473249
1.3850882
-1.4377154
-10.7042980
21.4709091
-0.1607873
-0.3954491
1.2355855
0.4852597
-1.8988410
1.6041449
-5.8955555
-3.2274642
-0.3754740
4.0046988
-0.2460533
-1.5076758
-2.8519034
-1.4889609
1.7643991
-3.1917689
-0.5591274
0.7951035
-0.2651347
-2.1374016
-1.7131095
0.4448711
1.2477216
-0.6238146
0.0392958
0.3642372
0.2071538
-0.6436267
-0.8121153
-1.3694328
-1.0258666
0.9106683
-0.0505910
0.0220581
-0.6356784
0.3065135
-0.2148274
-1.3495289
-5.4116139
1.1773417
-5.0835619
0.4015717
-0.3480319
0.0955220
-0.9283611
-6.3058753
-2.7246044
0.8023037
16.0328865
-0.0000175
-1.1013573
-1.4263991
-0.3157265
-3.0701423
-0.0256486
5.7631474
1.5490392
-0.5056396
9.3646755
0.8463355
-1.7746254
-0.8369134
-0.6340865
-1.3343834
-2.5910561
-0.6993308
-2.0552115
-1.8053620
-1.1528811
-2.2578280
-8.6800051
2.1174884
0.7650836
-1.7016783
-0.4095858
-1.1267864
-0.8762921
2.3177326
0.9041108
0.2552167
0.3871906
1.9860952
-0.0230382
-0.3248531
7.6440716
-2.0038795
0.6247978
-1.0037509
0.9288251
1.3193481
-1.9196386
0.6946863
-0.2442348
0.1302934
0.3384669
-1.6588086
0.8486804
-5.0073709
-2.9641657
7.7440953
-2.5149696
4.9255557
6.0781116
-3.9833357
2.2190545
-8.1965857
-0.1061032
1.7427126
5.1701961
-1.1585823
6.7446718
-4.1581955
0.4415684
3.8749132
-5.6099558
-2.6070764
-6.8856125
-5.0098634
-1.0507880
-3.7198670
-8.1714907
-7.1138825
10.3248205
4.1879678
3.7353983
0.6635730
-2.8266423
27.8193855
0.0115224
-5.7779555
1.3988576
3.3482261
-2.0268807
-1.3989515
-4.5216098
-7.6229973
-0.7048792
7.9762006
4.2476687
-3.3056068
-2.1690028
-7.1575251
4.6097755
-1.2408814
0.8333702
2.3479576
-1.4637951
-1.4759457
-2.1200995
1.6107210
3.7687378
-2.7033603
0.5330917
-2.5407391
-0.6920162
1.2572318
-0.2691645
0.9872839
-3.4479947
1.4178135
-1.4658320
-0.7594038
-1.8264472
1.5883675
0.7686375
0.6182999
-4.1653142
1.2572749
-1.9555125
1.6183109
-2.1660948
-0.4574162
-0.4870889
23.8757954
-7.1835141
-0.6115595
24.7308769
-0.6277970
5.4506021
-2.0674520
-1.6361008
0.4580730
1.9596807
10.4424286
5.8433685
-0.5831996
10.5836706
0.8954606
-2.5220602
-5.5381312
-0.3543998
-0.3546789
-5.5093808
1.2523583
-3.8965466
-4.2426476
4.1500988
-3.9201508
2.2822239
2.2887783
9.6072102
-3.4319744
-0.7856714
-5.0061440
-3.9212832
4.7805400
1.1892465
0.2229695
2.2325540
4.3468070
1.7069733
-1.6209671
18.7213650
-2.9433050
1.0526388
-0.9730709
2.3355913
1.2850214
-3.8059032
4.0082412
-3.3533676
1.1659971
1.4167403
-2.0093174
-2.6896439
-6.4304028
-2.3343592
10.9371567
-3.0867524
5.3938828
9.0756149
-4.9034038
2.1270456
-11.0653601
0.2730969
0.3208454
3.4741626
-3.5282302
6.2537289
-6.1356072
2.7381635
1.5938278
-6.5672693
-6.7566967
-8.0160685
-7.0484347
-2.2803330
-4.5017695
-9.5985289
-10.6915359
11.0049191
1.4851074
5.2202749
-1.0056919
-1.6989393
44.6904602
0.4853990
-7.4534025
2.2107003
3.7950013
-4.1238589
-0.9887499
-4.1792622
-16.0942383
-1.1434387
12.0344696
5.6668992
-3.4623158
-4.6601095
-12.5375118
6.8669252
-4.6899672
1.1761117
3.5174212
-2.9933450
-1.2752866
-3.7719791
1.7274524
3.6549587
-3.8979440
0.8975786
-2.9616127
-0.3001568
0.7511645
2.6183534
0.0415711
-4.5590577
1.9007221
-2.4193616
-1.3714176
-1.5343827
2.2721217
-0.6334659
-1.2636802
-4.8995976
1.5404936
-4.3018436
2.1388710
-3.2853875
0.2151784
-1.5559808
16.6772480
-10.7028723
0.3300746
39.7891006
-0.8720815
4.7585297
-2.4024787
-1.2636569
0.7402970
0.4454632
15.4876165
7.6893148
-0.9030666
18.1601772
1.6564853
-3.3602059
-5.9381399
-1.7388488
-1.2206748
-8.3367615
1.7949544
-5.0652876
-4.7247047
5.0205636
-5.4326458
-0.0711897
3.6661530
11.2055674
-5.3892097
-0.5973346
-7.6350927
-5.1962004
5.7479873
0.9421394
0.5398210
3.6389699
6.2300754
0.7352536
-2.6283767
28.9826527
-6.1165905
1.5122633
-2.3363118
2.4472563
2.3800714
-4.3762126
1.9226602
-4.8770819
2.4060669
1.8334981
-3.0793033
-1.5618094
-2.9822195
2.0524607
4.8288436
-0.7786810
-1.2215334
4.4048095
-2.4404397
-1.6423051
-6.1193991
-1.8674405
-1.3543003
-8.3773575
-7.5056453
1.0098710
0.3916451
4.4969182
-3.9363601
-1.9635438
-12.6236267
-3.9119248
-3.9118884
-3.3961809
-0.7621045
-3.5707872
-7.5396128
0.2888487
-7.7222128
1.3427076
-2.9000046
0.9799382
24.8811760
0.6548743
-2.7285450
2.3719778
0.1491256
-4.8986554
1.0267593
-1.5329218
-13.4988546
-0.8398883
7.6834011
-0.3070017
-1.0631113
-4.4138060
-9.2049751
3.8235812
-9.4989719
0.6267932
2.4495323
-3.0516043
-0.6084617
-3.5376413
0.3613513
1.0806223
-4.2804613
0.1904436
-0.5512607
1.7092323
-2.6117079
4.3891368
-1.7327641
-1.4666653
-0.1868648
-3.2153337
-2.9426110
1.5178032
-1.5235107
-2.4933667
-4.5634751
-0.8381680
-0.8031192
-5.0775766
0.7701893
-4.5927973
1.6627856
-3.5373156
-14.4531355
-8.1021175
2.1297004
25.8243961
0.2242931
-5.2373753
-1.2526275
0.4213620
-5.1484108
-4.3496218
8.7990198
2.2498775
-2.5294926
15.5987196
2.9046152
-1.3537726
1.3416950
-0.9583676
-0.7832614
-5.0959678
-0.6318799
-0.2819780
-1.7561314
-0.2313736
-2.5886180
-1.1161300
3.2702510
1.8553606
-2.2827492
-0.0589328
-2.0761335
-1.5206803
5.4877396
-1.7447174
-0.5170178
2.4603395
1.0611850
-2.2015500
-2.2928336
22.9356594
-8.2332468
-1.2780437
-4.9402189
-1.6819544
0.2868153
-0.9019538
-8.1672812
-0.3364375
1.7054591
0.7755499
-2.5670598
-2.0016921
-2.4861393
0.9785609
2.7091930
-1.8214426
0.1328384
1.4638208
-2.7105949
1.6961122
-3.4531631
0.5940107
-4.9342041
-1.4618864
-0.2166763
2.2693565
-1.6684780
2.9377294
-0.5316862
-0.8163049
-1.1338197
-1.6025225
-1.0327457
-1.7522656
-0.5169926
-0.6796626
0.2419314
-1.7319838
-4.9714265
1.0984532
0.5035806
-20.3450546
20.5275669
-0.4632920
-0.7001970
1.0541047
1.0783241
-1.9226061
0.0114261
-8.6156073
-2.5312130
-0.3704477
3.4027877
0.0604534
-0.2640704
-2.8104463
-0.2762375
1.1187024
-1.8760748
-0.3111097
0.9158676
-0.9034015
-1.1965864
-1.4066268
0.0651301
0.9058191
-0.6573453
-0.1698038
-0.0100683
0.4019587
-1.2316502
-2.0972025
-0.8928443
-2.9283769
1.4385650
-0.0346954
1.0398533
-0.6067647
-0.0817731
-0.0242351
-1.7100428
-9.7998838
-0.2193135
-4.2693052
0.5602183
0.7616859
-0.2279458
-0.6300668
-1.9742436
-2.9842284
0.1230815
15.6874218
-0.9659685
-0.9890239
-1.4008880
-0.8918805
-2.5592008
-1.2743945
5.4790802
1.8610407
-0.7988606
9.1304426
0.2259361
-2.0592015
-0.9494528
-0.3103333
-1.3855644
-2.8112056
0.7937388
-2.4647696
-1.3403798
-1.6139781
-0.8572261
-9.1059370
2.5781608
0.1254006
-2.1579483
-0.2384232
-1.6381381
-0.0396341
2.9571552
-0.0997691
0.1094603
1.2470112
1.8491104
1.3132515
-0.2874453
9.1249266
-1.0102971
0.2331156
-1.6695974
-0.6812428
1.5308410
0.0787508
7.3745866
-0.1667247
0.0862363
0.7727299
-1.2363449
0.1621396
-4.6150055
-3.3699038
7.0027213
-2.7260599
4.6804714
4.0037723
-4.0780954
3.0915222
-8.7526522
-0.3338010
0.5079889
4.0894356
0.9692082
4.1076655
-3.1653841
0.0501990
3.9705021
-4.8748956
-1.0260737
-6.6773987
-4.3131237
-0.8156255
-3.8965542
-8.2679596
-3.1739299
8.5250502
6.1081057
3.3127999
0.4908257
-3.5447228
26.2671089
-0.2693362
-6.9992652
1.3229510
4.2851014
-2.0794506
-1.6563275
-5.2965717
-7.4021406
-0.2702750
6.2124019
6.1971622
-2.4826617
-3.0036588
-4.4107771
3.7003849
-1.2099802
1.1523405
2.6116216
-1.6375655
-2.7097449
-2.4361231
1.3212698
3.3043721
-2.1311505
0.7905384
-2.8810830
-1.3256028
1.1088141
-1.6689686
2.8815501
-4.2465229
2.3217490
-1.1733299
0.9046340
-1.6820961
2.6515133
0.7808583
0.1467948
-6.4383273
0.6754284
-0.9748023
2.2886753
0.1116487
-0.9187559
-0.9814305
9.4097738
-6.7218189
-0.8814517
23.2651482
-1.8276629
7.3785896
-1.8941934
-1.3823069
-1.9092519
0.0763826
10.1473351
5.4973192
-2.1091008
10.0312376
-0.0417444
-2.9801702
-3.8125219
0.6594533
-0.4925765
-5.2203169
2.8474295
-4.0269380
-4.6939688
5.8407960
-4.4811621
-0.2830678
2.4096031
9.1430264
-3.7354898
-0.7711220
-5.9546547
-3.1471772
5.8396578
0.3359181
-0.0037000
2.6445143
4.4912395
4.0697403
-1.6828027
17.7775860
-1.4985337
0.8554012
-1.1506857
0.2793227
1.9923842
0.6229833
11.0730066
-4.7323012
0.8772827
1.9792553
-1.9264766
-1.5369191
-5.3889079
-2.6961877
10.2175179
-3.5089462
5.5926490
7.3791480
-5.7289705
3.3771372
-11.1701555
0.1504571
-1.0404963
3.5041101
-1.0783216
3.3504770
-5.5348282
2.4480350
1.7677374
-5.9816799
-4.2748251
-7.6259980
-6.0988317
-1.8382022
-4.6662903
-9.7942886
-8.2248173
9.7024765
4.0915508
4.7965775
-0.9973752
-4.0438561
42.9873734
0.1075268
-8.3805561
2.4514558
4.7526660
-3.9298766
-1.3567698
-4.9140463
-9.8638182
-0.7963223
10.1101904
7.6718817
-3.1606164
-5.4185028
-10.6629143
5.9686971
-3.6866186
1.4227973
3.5361638
-2.9206669
-2.7114818
-3.9375601
1.4630855
3.2951272
-2.9808762
1.0366627
-3.4341567
-0.8608609
0.3550480
-0.1539891
2.1055872
-5.3817148
3.1566989
-1.9160240
1.2466155
-1.5889202
3.2414250
-0.3874246
-1.1460047
-7.2965965
1.0956463
-2.6845908
2.8541696
0.5931064
-0.3983776
-2.0136979
3.9154439
-9.7532263
-0.4834051
38.7378540
-1.9537815
7.7305417
-2.3652523
-1.6382447
-0.5706960
-1.7564476
15.2536678
7.6628466
-2.1856592
17.0434380
0.6466901
-3.8577700
-5.9926906
-0.3181118
-1.6519182
-7.9635358
3.3417134
-5.4790902
-5.2544789
6.3848343
-5.2107525
-3.8208435
3.7361445
11.0781260
-6.3026147
-0.6744874
-8.1557446
-4.4417014
7.0101151
0.3488748
0.5373576
3.9392893
6.9421682
3.4737892
-2.3754234
28.4114094
-4.0335898
0.7646409
-2.1107206
0.7388735
3.0300190
0.0197390
9.5079403
-5.9267592
1.7843956
2.3881984
-2.9530368
-1.4504564
-2.7160287
1.7055792
5.2063212
-1.3173871
0.2952423
5.1663704
-1.1537232
-0.0934843
-7.0830588
0.2312984
-1.0997599
-4.2037549
-5.7951899
-0.4569151
-3.1899443
4.5710826
-4.5834994
-1.7908081
-9.6141033
-2.0008793
-4.1860065
-3.0191295
-0.8285404
-2.8939874
-10.4129467
0.1283726
-4.7791090
0.7934371
-2.8498299
2.2856677
29.0504951
0.5088853
-2.2300696
2.8682878
1.8661705
-3.2405546
1.6811534
-1.4943179
-7.2670898
-0.7957197
6.4698124
2.5165069
-1.3335592
-3.7667878
-11.9546967
3.8621025
-5.1600595
0.6022997
2.7119360
-2.8611243
-0.3922626
-3.2605579
0.6958098
-0.1934226
-1.5537986
0.9955333
-0.6583264
1.0962766
-1.7367507
4.2513652
-1.1895634
-1.4154395
-0.5610664
-1.6293821
-2.5485528
2.3453541
-0.1154619
-2.9026587
-3.7222083
-2.1373036
0.4862029
-6.2035837
0.8637751
-3.5594463
1.5086991
-4.2732730
-12.6074200
-7.2114253
1.7534343
29.2963428
-1.1697874
-1.8078574
-0.9080135
1.1584004
3.8732185
-2.7945404
9.8270292
2.4909189
-2.2330918
17.4450016
2.5397046
-1.7553101
-9.3271523
-2.9744065
-2.8273606
-5.6328678
0.4017478
-2.8091259
-0.0595334
1.6104760
-3.3572376
-0.8973953
3.2042499
2.8216884
-3.5120590
-0.1762356
-5.3169312
-0.4243449
3.4258032
-1.2520756
-0.9355175
1.8519275
2.7704735
-1.7757211
-1.8356100
21.7725430
-6.3992209
0.6101965
-2.8733652
-0.6927981
1.6425682
-0.5144275
-6.6463442
-0.8836549
1.1501220
1.3597801
-3.8932886
-0.8123112
-1.3029846
0.6605800
2.6177478
-1.6543988
1.0620852
1.9164509
-1.7378950
0.6723226
-1.7466278
0.3497833
-2.0935800
0.5904286
-1.6906327
0.3850299
-0.9763808
2.2336938
-1.0857364
-1.0475211
-1.8724757
-0.9444799
-1.5549619
-0.7180400
-1.1597023
-0.0376948
-0.2439050
1.9393380
-1.4668404
0.6006386
-1.4532498
-14.5363226
13.5745802
-0.3296362
-1.5245495
0.8085205
0.2126669
-1.7720374
1.4540293
-5.8457699
-1.7655308
-0.7574692
3.0716236
1.8149914
-0.6898053
-0.8828795
-1.5385592
0.6344389
1.3290284
-0.3813945
0.2108077
-0.9387448
-0.1105409
-1.3336492
0.5153507
0.4485621
-0.8682463
0.4619125
-0.1005922
-0.0163957
-0.7451155
-1.6167948
-0.5607238
-0.9406626
1.3970292
-0.4215023
1.5601280
-0.6328835
0.3503039
-1.3431443
-0.7810752
-10.3228359
0.1852587
-1.3817892
0.1304421
1.9200677
0.0195752
-0.1636284
28.8385487
-3.2408323
0.4419246
14.2349739
0.4014119
0.6977264
-0.9731228
0.0838792
-0.1194064
-0.5356032
4.7836046
2.3139136
0.1598206
10.7841091
0.8827792
-1.7626272
-1.3205900
-0.1179356
-1.0039935
-1.8235974
-0.3438085
-1.6404009
-1.0517712
-0.0953960
-0.6995091
-4.5487852
1.7832781
0.9483381
-2.2168667
-0.7329830
-1.6119063
-0.9708721
3.9650142
0.2903282
0.4380560
0.8302778
1.7915568
-0.0667111
-0.5976452
5.5098476
-1.7089915
-0.0310266
-0.7745954
-0.4277023
1.4377406
1.0678313
-0.0512455
0.5593308
-0.1829365
0.7535813
-0.6959679
-0.6513559
-0.5866214
1.7101169
5.8590455
-2.0310531
1.4897648
3.8663518
-2.6151562
1.0981295
-3.2992120
-0.6818003
-0.2564956
0.2114724
-3.8572099
-0.8293202
-1.7016919
4.7313342
-2.5936840
-2.0424130
-4.4104600
-2.3540869
-2.3225617
-0.7611766
-1.5361074
-3.4525201
-3.5564122
2.3024359
-0.6738476
1.1271232
-3.4503345
-2.8646307
26.1482906
0.5197031
-5.2643371
1.7548512
2.7908311
-2.8200419
1.5367255
-2.0592449
-2.2164657
-0.0592589
7.8966179
7.2728252
1.6301030
-1.9385651
-4.3243017
2.6900172
-2.4100900
0.4910524
2.5867956
-2.5776842
-1.0798481
-2.5001993
1.3379011
2.1340296
-0.5620620
1.0755391
-0.1888406
0.8177124
0.7620370
-4.1462102
-0.1101794
-1.8177044
3.2473786
-0.4697637
3.8660645
-0.5400327
0.9699563
-2.9929864
0.7550896
-0.1417330
-0.2375240
-3.8010845
1.7131728
4.8841553
1.0952718
-2.1197965
-28.1647224
-6.4413047
-0.0124756
22.5245838
-0.5952179
1.8188562
-0.6207343
-1.7121936
-2.9714720
-2.9258018
7.8367968
3.6101182
-3.0850720
18.1902008
1.0634520
-2.1112053
0.2413132
0.0714559
-1.7136474
-3.7161942
2.5614631
-2.8808432
-0.1430688
1.4444946
-0.6738377
-7.5494661
2.9031587
2.9520876
-4.3158908
0.1265585
-4.6430573
-2.0107317
7.9437909
-0.9587532
1.1760888
1.9057169
3.2735183
0.4389575
-1.3976892
18.9154682
-3.1562531
-0.2391297
-2.1877744
1.6388336
1.9142691
1.3415871
-2.4364448
-1.3617134
0.5765702
1.9054736
-2.3294814
-1.0907428
-1.1177719
2.6986699
8.8568001
-2.9599333
2.5377679
6.1717367
-4.7350364
1.5668076
-6.5605497
0.0029125
-2.6973755
-0.4250196
-5.8735895
-1.6612545
-3.3072755
7.4592490
-3.7132370
-2.0478435
-6.5441723
-2.9403996
-3.6789417
-1.4606893
-2.2550180
-5.3043318
-6.5248518
3.9331028
-2.8707893
2.3031423
-5.0718637
-4.1587210
40.0886841
0.5548461
-6.1152816
2.5255935
3.0644157
-4.2530632
1.5883448
-2.0764954
-4.2709398
-0.5965358
11.7313023
11.3374510
1.4221898
-3.3965743
-7.0935245
4.0787115
-4.4706144
0.4260222
3.0996397
-3.8154099
-1.1424727
-4.2134767
1.6004035
1.0760319
-0.7262929
1.7123402
-0.2003964
1.5464531
0.5425917
-4.3003788
-0.7581527
-2.6122494
4.2682424
-1.1556901
4.6939497
-0.7686802
0.8135565
-4.3323183
-0.4585842
-0.8042613
-0.1035578
-5.1961203
2.4877062
6.1661820
1.5070918
-3.3468816
-32.7905273
-9.5178604
0.3939063
36.5333328
-0.6160997
2.4155138
-1.2370443
-1.2753847
-3.6561596
-5.0365267
12.0765800
5.5528812
-3.2767577
27.0727367
1.9825495
-3.2366004
-0.4634068
0.0637691
-3.1439586
-5.4735785
3.4372330
-4.0892472
0.3277881
2.8085051
-1.2273737
-11.6629019
3.8664455
3.9951737
-7.0032020
0.0916972
-5.2570353
-3.2063205
10.1179438
-0.9869813
1.7840791
2.7171953
5.0936208
-0.1258388
-2.3291945
27.7349911
-4.7657905
-0.6829184
-2.8002706
2.1038842
2.6470931
2.3590782
-4.1341538
-2.3977427
1.0838736
2.6263561
-3.5787659
1.2424815
-0.7407837
1.1676009
4.4412045
-0.8445475
1.3476559
8.4273281
-1.8427474
0.1149166
-7.0820937
-1.2920674
-0.2106331
-1.4955553
-6.3677564
-1.3084236
-3.3904524
4.5684862
-2.8775449
1.0520302
-7.5531569
-2.2308304
-1.5174205
-1.8596543
-1.9434508
-2.1649497
-0.6611072
1.4930815
1.6011944
-1.8131505
-3.8853619
1.5624884
25.0157967
0.3026667
0.3293533
2.2692041
1.0431688
-1.8764170
1.0203356
-1.5426894
-2.4656372
-0.1902986
5.5338998
3.7317390
-1.7029860
-1.5171887
-6.1611233
4.9264927
-4.1250024
2.0287671
3.0038443
-2.8681567
-0.4997294
-2.8572552
1.0961643
-0.0886922
-1.8289328
1.6242431
-0.2910567
1.5912782
-2.0684028
4.4955630
-1.7029655
0.4476312
-0.4971210
-1.4674457
-1.0686907
2.6216960
-1.3087677
-3.3980405
-3.6545525
0.1824397
0.4422485
-6.7118211
2.3540637
-1.0199467
1.3428681
-0.3048867
-7.6631923
-5.9009385
0.5104418
27.9414635
-1.6604394
0.6679009
-0.7542212
1.0793867
-2.0995398
-5.1896100
4.8588262
4.0212688
-1.4926507
17.1531715
3.1266868
-1.4797642
-2.2613492
1.5353436
-2.4386353
-2.1802602
-0.6011924
-1.5408496
0.8826048
2.8476391
-0.1784667
-1.5725838
2.9040174
2.6744871
-4.6865792
0.2370401
-4.3782620
-0.8511302
6.7604556
-0.7232716
-0.3066179
2.0181541
2.4658823
0.0467348
-0.8500826
14.5571260
-4.2736340
-0.2585085
-3.0410450
-0.7902907
0.9525700
1.7315259
-8.5541153
1.0775619
1.0365260
3.2453840
-3.8254440
-1.1382893
-0.7833410
0.3438732
2.5475695
-1.2307247
1.3483185
1.8669732
-2.2050171
0.7249236
-1.8094239
0.1986439
-1.7074171
1.0135250
-1.6065893
-0.0690120
-0.8911355
1.8993338
-1.2446277
-0.8585905
-0.9855838
-0.5745894
-1.5494720
-0.7528293
-0.9068618
0.1290665
0.4099421
1.5133578
-1.3751609
0.2021257
-0.2911747
-14.4942770
12.8371544
-0.3725487
-1.4699407
1.0103400
0.3840080
-1.6897812
1.0307344
-6.1708364
-0.7983537
-0.7857583
2.8717752
2.3783917
-1.3445939
-0.9527841
-1.1906536
0.3481807
1.7076324
-0.1594941
-0.0749654
-0.9180737
-0.0720083
-1.3930881
0.3941747
-0.2230025
-0.5122223
0.5097091
-0.0420555
0.0789504
-0.7078239
-1.5346590
-0.7334720
-0.8107618
1.5494282
-0.4281713
1.8627634
-0.3877776
0.3838821
-1.0445248
-1.2929895
-4.8520412
0.4343857
-0.8737962
0.1523029
2.5614390
-0.1294594
-0.2887903
-4.0616131
-3.0140889
0.4186181
10.7164669
0.3534432
1.0050977
-0.6188726
0.2151107
1.0985478
-0.0643741
4.1513786
2.3769178
0.0101672
11.0515327
1.0019493
-1.4938480
-1.0532019
0.0878109
-0.6291816
-1.5814550
-0.0075761
-1.6535602
-0.8196976
0.1330676
-0.9332050
-3.9917102
1.9161637
1.1158240
-3.2413764
-0.5008208
-2.1902325
-1.0685201
4.5267377
0.3627253
0.3968246
0.6889191
1.7823390
0.0984816
-1.0661277
6.8553753
-0.9831766
-0.6394874
-0.3063715
0.9177386
0.7284411
1.9792010
-0.1007064
1.2034478
-0.2944557
0.6165801
-0.6021008
-2.9464800
-0.1628902
1.6085238
5.6301346
-1.9145199
1.8192072
3.3264527
-2.5268979
1.5880884
-3.8016679
-1.1944770
-0.6934859
0.2321184
-3.5575442
0.8845905
-1.3945637
4.5101514
-1.9898819
-2.4456737
-3.1754029
-1.8406005
-2.3143187
-0.8227729
-1.4372098
-4.0427866
-2.5611298
3.5543520
-2.1574526
0.7350026
-3.1437118
-3.1407528
25.8098335
0.1436194
-4.5232706
1.9014577
2.1974301
-2.8359962
0.8849936
-2.0789018
-2.8451431
-0.2270766
7.4543428
6.8165054
0.8644579
-2.2663240
-3.7621760
1.9728066
0.6196236
0.3286489
2.6006336
-2.7816556
-1.5792458
-2.2774897
0.9803493
1.1347975
-0.3914734
0.9615585
-0.0656177
0.8067780
0.4843522
-5.6256752
-0.5734517
-1.4781048
3.2820175
-0.7248607
4.2902007
-0.0129631
0.2938685
-2.7916284
-6.1116881
-1.6648794
0.2095826
-2.6645260
2.0143645
5.7816792
0.7050002
-2.2319789
-4.1432586
-5.6697640
-0.4581428
22.8166218
-0.9529161
2.2561774
-0.8981312
-1.6848030
-1.4235966
-2.3801758
7.2179613
4.1999540
-2.6186490
17.1995029
0.7903240
-1.9366815
-0.1089176
-0.2568100
-1.4941518
-3.5582042
1.6223668
-3.1795139
-0.1437868
1.7105240
-0.9306459
-6.7233272
3.4423800
1.4245898
-4.9296765
0.3076779
-5.1506581
-1.9108227
9.1535425
-0.6201491
1.0699720
1.0685160
3.5182896
0.2152130
-1.0197536
17.2946167
-2.3044391
-0.7339607
-1.3429118
2.5471647
1.4428285
1.8623877
-1.9203923
-1.6264058
0.0102899
1.8211738
-2.2023525
-3.5798287
-0.6035521
2.6315815
8.5212317
-3.1795855
2.8768370
5.7079382
-4.5807729
2.3135459
-6.4445853
-0.7489623
-2.7503889
-0.3159734
-5.5640364
0.0009619
-2.3380270
7.0741005
-2.5618947
-3.0261521
-4.9882140
-2.2751482
-3.4550676
-0.6771317
-2.4699318
-5.8853421
-3.4991963
5.3726873
-3.4187536
1.5212891
-4.7823539
-5.2242060
39.9302673
-0.0611644
-5.1473622
3.2517252
2.8618109
-3.9169526
1.2965158
-2.3845174
-4.3091736
-0.6903593
11.0805311
11.3539639
0.3816125
-3.1124947
-5.4533601
3.3262157
-0.3359209
0.2591589
3.4626656
-3.4788928
-2.5708122
-3.9063983
1.4437287
-0.0229443
-0.4203213
1.5381105
-0.1458866
1.1647173
0.3341880
-3.8970449
-0.7606946
-2.3684235
4.5185027
-0.7201556
5.7118268
-0.7429312
-0.1150550
-4.5288043
-9.5162554
-2.6262560
0.7955619
-3.5296571
3.2224851
8.0778074
0.8829861
-3.4558091
-7.7664914
-8.1586418
-0.0351890
36.8644066
-0.8812122
3.5714962
-1.4030073
-1.2828482
-1.8827367
-4.2785487
10.6651220
6.6518874
-3.1829290
25.5994720
1.6655412
-3.3230276
-0.0125733
-0.0336099
-2.7153344
-4.9671922
1.8548425
-5.0096169
0.1349200
3.0968463
-1.7911695
-11.0204744
4.5213070
1.6074659
-7.2720270
0.1234591
-6.6110287
-2.8956628
13.4097862
-0.7717164
1.5584493
1.6857498
5.3232956
-0.4408198
-1.4295152
24.6555233
-3.6884031
-1.3515720
-2.0492668
2.8105872
1.6880974
3.1553404
-3.3242946
-2.3268955
-0.3202947
2.8881028
-3.1968367
-0.5292464
-1.9582497
1.1515230
4.0287552
-1.7956607
1.0171161
5.1891260
-4.1534767
0.7932854
-5.3222752
0.4182228
0.2008296
-0.9027229
-5.6956954
-3.5750706
-2.5678942
4.1757216
-2.1030726
-1.4556609
-6.6632853
-0.9134285
-3.1274190
-0.1041944
-1.3195145
-2.7938340
-6.3687711
1.9259797
-3.2680962
-0.0056350
-2.6004736
1.9760364
29.6670475
-0.0103165
-1.7258430
2.5362599
1.0340747
-1.2555407
0.9303715
-0.9980026
-3.6468000
-0.7555324
5.1474090
5.7409830
-1.4642985
-0.1908351
-9.8415565
2.7808053
-3.4084277
0.0650771
0.9933233
-1.9926864
0.6020280
-3.1289113
1.1047463
-1.1310029
-1.2436031
1.0950228
0.0461539
0.2839816
-1.7416480
2.8395829
-1.0127736
-1.3687352
0.6237774
-0.0157071
0.3557839
1.3077058
-1.4174329
-6.7392168
-5.2489977
-0.1507207
0.5055074
-1.3364873
2.1611755
0.6527616
1.1085907
-2.4794617
-7.9206810
-6.0111508
1.4516171
24.8373394
-0.5961890
0.7997275
-0.9381050
0.8523064
-2.3094959
-5.6370931
6.4344153
2.6793590
-1.3198341
18.4571686
2.1944559
-1.8791211
2.1286376
-1.2115012
-2.3703082
-3.6983724
0.5657035
-4.1523023
0.3569592
1.7651161
-4.7078080
-4.7771382
3.6612239
-0.8380795
-5.7431140
-0.1330499
-8.9898052
-0.3953061
7.6530099
-1.2697229
-0.6020605
2.1408677
2.1075354
-2.0232935
-1.6600984
15.7624941
-4.0499701
-3.0072663
-2.3651812
-3.0724595
1.4130989
2.2995753
-7.9335513
1.5433502
-0.1026219
2.6455984
-3.2306056
0.0385445
-1.1304851
-0.0540523
2.7123330
-1.3916240
1.4903586
1.5205507
-2.6680539
0.7691565
-1.8311037
-0.2336925
-1.6619866
1.2812992
-1.6505421
0.0080402
-0.9065152
1.5505979
-0.6526113
-0.7496807
-0.2300594
-0.1071987
-1.7088948
-0.6003729
-1.0094727
0.1147520
0.3249965
1.9406775
-1.1671989
-0.1048282
-0.7590051
-13.4721022
12.3639812
-0.3143270
-1.3369530
0.7242949
0.0911832
-1.5087241
0.6366923
-6.5128279
0.5782897
-1.0059727
3.2279851
2.8700285
-2.5495157
-0.5852535
-1.4260572
-0.0333269
0.8189202
-0.2792614
-0.5127603
-0.7700156
0.3347110
-1.1842234
0.1502855
-0.7271363
-0.2977313
0.5967890
0.0177971
0.0379001
-1.1056519
-1.9321563
-0.6200660
-0.8031975
1.5425773
-0.0921357
2.0644362
-0.1603981
0.0956051
-1.5037754
-0.8666303
-1.7923944
0.5482494
-0.7195320
0.4050208
3.1758144
-0.2798489
-0.2505954
-3.2926936
-2.5131412
0.1149624
8.3828011
0.4708554
1.3797462
-0.8252049
0.0145475
-0.1951808
-1.0637137
3.9213006
2.3379741
-0.1948110
11.1390371
0.9745281
-1.5575720
-0.8223644
0.2262464
-1.0711890
-1.0650742
0.0681340
-1.7408209
-1.4752476
0.3104915
-1.0340941
-3.4777775
1.4736667
0.8605360
-3.4922869
-0.6901200
-2.3135207
-0.8671986
5.6711721
0.2907844
0.4446400
0.2678343
2.1649101
-0.3107427
-0.8949064
7.7684093
-0.4627660
-0.9752594
0.0350443
-0.0057333
0.6407186
-0.4954781
-0.1420740
1.3522680
-0.5653452
0.7963779
-0.7848933
-1.6979902
-0.0428304
1.5159693
5.2769308
-2.2470639
1.6201452
3.3913689
-3.0522280
1.6513517
-3.4358435
-2.1861529
-1.8212872
0.6315159
-3.3097703
0.6449126
-0.8281118
4.2249055
-1.5170527
-3.0377116
-2.0825646
-1.4678757
-2.4767206
-0.6097277
-1.4324394
-4.5685720
-2.2673821
3.1679029
-2.5740120
0.0689158
-4.6741238
-2.2635195
24.7097607
-0.5637211
-3.5500059
1.6680694
1.3726704
-2.8731368
0.4384822
-2.3448372
-0.6144099
-0.4082485
6.7909989
8.1976624
-0.0755986
-1.5811203
-2.6850498
1.7240766
-0.8274788
-0.0266783
1.9500784
-2.8435106
-1.2503105
-1.7798928
0.7147166
-0.0882724
-0.0563296
1.0413835
-0.1384198
0.3939617
0.0552479
-6.0134139
-0.5218527
-1.4684676
3.0821605
-0.0479464
4.3736858
-0.1280692
-0.5637736
-3.4763889
-2.6860456
-0.7721710
0.5368576
-1.7312033
2.4101114
6.2048373
0.0004927
-2.6716652
-2.2612643
-4.6546583
-0.7980725
21.1294422
-1.2913152
2.2293179
-1.7466325
-1.4471081
-2.8538599
-3.3989480
6.4707355
3.3690753
-2.2485087
16.8517170
0.8579910
-2.2940202
0.7736551
-0.1773699
-2.1342669
-2.7340829
0.8185501
-3.0357575
-0.7520533
2.0329669
-0.6744261
-7.0307851
3.2289619
0.2026024
-4.8673720
0.0784325
-6.6315856
-1.2887076
10.8995094
-1.0301187
0.8536953
0.1218530
3.8499987
-0.4052876
-0.0912163
15.8299494
-1.7634212
-1.2924477
-1.0004447
-2.5697947
1.1062254
-1.0153098
-1.2060012
-1.5544101
-0.6256784
1.7294004
-2.4082186
-1.6422381
-0.3643192
2.6594832
7.7355433
-3.5523548
2.7157278
6.4201446
-6.1459155
2.5861280
-5.9691973
-2.1367648
-4.1822252
1.0735435
-5.0350485
0.2730722
-2.1202614
6.9591203
-1.8001386
-3.8460841
-2.9989057
-0.9450102
-3.4961908
-0.1845516
-2.5796332
-6.4861188
-2.2557263
5.0067739
-3.9735250
0.7321687
-5.2868638
-5.0058413
32.6402512
-1.1004597
-3.4635766
3.1531129
2.1158278
-4.0160522
0.9147749
-3.0062468
-1.1352453
-0.9831879
9.8106909
13.3566961
-1.3304709
-2.0038948
-4.1547999
3.4681356
-1.2265384
-0.1478047
2.8352618
-4.0310693
-1.5426327
-3.3573554
1.2468687
-1.5305685
0.4131505
1.5604715
-0.1304118
1.2088101
-0.6895607
-3.0080662
-0.5311481
-2.9014311
4.4873414
0.2042753
6.4104652
0.7060026
-1.0549722
-4.7506723
-4.6054220
-1.2611821
-0.1327063
-3.9594960
3.8591940
9.4798841
-0.3179342
-3.9872921
-4.6693010
-6.3736258
-0.8099188
34.0376778
-1.3877519
3.4282546
-2.2862704
-1.2095562
-3.4977207
-3.3581347
9.1533575
6.3165641
-2.3795421
24.0637035
2.0851305
-4.0241985
1.1647483
0.2708637
-3.7012451
-4.0216084
1.8462481
-5.0902262
-0.3531119
3.4856670
-1.9008262
-10.7016611
3.5100582
0.4470414
-7.9432120
-0.6411309
-8.5650425
-2.0220401
14.0268459
-1.3317081
1.5943172
-0.4653772
5.8168235
-0.8847463
-0.1150402
22.1150608
-2.5901666
-1.4148053
-1.3911239
-3.2202320
1.0075417
0.1587534
-2.4314506
-1.5287583
-1.5219866
2.8877263
-3.6522825
-0.7590917
0.2425868
2.3524089
3.9134672
-2.1414828
0.9177830
2.8199494
0.3621140
0.0143812
-6.4058099
-2.0407500
-1.7983565
-1.6333469
-4.2224355
2.8367312
0.7532571
4.0724792
-2.2162318
-2.0180798
-8.2231836
-7.9536147
-2.8448849
-1.9893757
2.4517639
-3.8555245
0.2200078
0.5554512
0.4831227
-3.7546036
0.3433328
-0.1566573
21.6360283
-0.2021964
-0.1803456
2.1264446
-0.8225699
-1.2459757
1.8328886
-0.2081324
1.7924596
-1.5982019
5.5139108
4.9263129
-1.9262308
-0.9210531
1.2583092
0.8134810
-2.6933990
-1.3166584
1.6120217
0.8228907
2.6009271
-3.5611253
0.0184451
0.3921131
-2.9841280
1.9193174
0.1137503
2.9429791
-2.1489959
5.3188791
-0.3201901
-0.4116203
0.3010462
0.5343073
1.6253949
2.6011839
-2.7073691
-4.1828532
-5.2578859
-0.5213982
0.9637597
-3.5612671
2.0157816
3.3420236
0.0988014
-8.5154152
-7.9377518
-4.3060803
-0.7785341
17.1751308
0.6153299
-2.4212022
-0.3996279
-0.9340953
1.2499546
-7.1918688
5.8821664
2.4912922
-1.4925530
3.2711484
3.2898779
-1.7889358
2.8686397
-0.9826031
-3.8547022
-2.6980495
1.3030393
-2.5691521
-1.1974838
1.0364478
1.9519702
-2.4027872
3.6593990
-1.2760822
-6.8680792
1.8934721
-2.4405966
-1.3884269
11.5004482
-2.2635686
-1.2313941
-2.7694240
2.5565565
-5.4992700
1.1135805
10.2127857
-5.2240376
0.1894277
-1.2682624
0.6429284
2.4907625
0.3948810
-8.1162138
1.9408985
-3.1396332
2.7995338
-0.8615606
-1.1844953
-0.8370579
-0.3614657
2.5629859
-1.4311675
1.3959447
1.9703127
-3.2904632
1.0473423
-1.9750133
-0.3539315
-1.7586001
1.1502006
-1.5245335
0.1870558
-0.2124103
1.1641812
-0.1694195
-1.1651386
0.6091158
-0.1747431
-1.7264440
-0.1919858
-0.7369381
-0.0634729
0.1656216
2.4518154
-1.2598398
-0.8114631
-1.0002033
-11.2639322
11.9817696
-0.7949311
-1.2975669
1.1124334
0.0526607
-1.0357053
1.2978108
-6.7533760
0.9828374
-1.0078638
3.1915596
3.6398373
-1.8618796
-0.3045435
-1.3841872
-0.2550291
0.3870418
-0.5299307
-0.6858103
-0.8647634
-0.3931606
-0.9319958
0.1361056
-1.2754741
-0.2788977
0.6795621
-0.0512181
-0.0498111
-0.5725298
-1.4746345
-0.4113071
-0.3045142
1.6719512
-0.1457368
2.4328728
-0.3533631
-0.0813364
-1.4093375
-1.1134278
-0.5414881
0.6318365
-0.6759305
0.2214048
3.8558187
-0.2868690
-0.5538157
-2.6548362
-2.2250290
0.1359704
2.1872761
0.8067505
1.5231285
-1.0145051
0.2377938
0.0200687
-1.1875352
3.5037975
2.4283209
-0.2592641
10.9660873
1.1253462
-1.4831150
-1.4992523
0.5697741
-0.6355999
-0.8101194
0.1630853
-1.7811400
-1.4703599
0.3675340
-1.0139936
-3.1008446
1.6765114
0.5801410
-3.1907380
-0.9288206
-0.6100540
-0.9249352
6.2304134
0.3744565
0.2390486
0.3872508
1.9820756
-0.6356053
-1.0960546
7.7744436
0.0523034
-1.8016745
0.2654796
0.1126914
0.8087311
-0.4353626
-0.0671027
1.8620716
-1.0404551
0.7791033
-0.5837333
-6.0304232
0.9369665
1.3213938
4.8978066
-2.3993342
1.8097171
4.5171828
-5.1043129
1.3308301
-3.6538169
-2.9767087
-0.7102139
0.2890022
-3.1383901
1.4305089
-0.9924796
3.7514389
-1.7588309
-2.8468792
-0.7720446
-1.4154371
-2.3795161
-0.3766237
-1.2692795
-4.5864177
-0.3929668
3.2493463
-2.2402194
-0.1422325
-4.8983846
-1.8844125
21.6856346
-0.9458900
-2.8315542
2.2367826
1.2928971
-2.2738209
0.9840763
-2.1723762
0.5909496
-0.8666341
6.1619329
9.4511614
0.0394415
-1.0923719
-2.6580074
1.7454090
-1.2515444
-0.1637493
2.0651166
-3.1148181
-2.8809948
-1.7942911
1.2427860
-1.1086531
0.3110260
0.5089926
-0.1770947
0.2257145
0.8081050
-6.3371677
-0.8936973
-1.4855551
2.8934507
-0.8593730
4.7242908
-0.3366514
-1.4315034
-3.4961033
-2.3711228
-1.6208920
0.6692518
-0.9060109
2.4809690
7.0091023
-0.1661754
-2.8666277
-2.9965062
-3.9021819
-1.1842405
19.3731136
-1.0092314
2.7110093
-1.3358865
-1.1904461
-1.5587467
-2.4014449
5.0409451
4.3393312
-2.1964419
16.4989967
1.1894225
-1.9049011
-2.1698651
0.1914459
-1.9661888
-2.7036986
1.0708485
-3.3806217
-1.1602509
1.8552910
-0.2010846
-5.3651943
3.7273369
0.1074631
-4.6020122
-0.2118925
-1.9707216
-1.8578912
12.2719641
-0.3765623
0.6656172
-0.5102389
3.8049610
-0.1481259
-0.1389434
14.7519197
-0.7593952
-3.3859885
-0.5967693
-1.2857500
0.9933501
-0.2379031
-0.8550963
-0.1976689
-1.1029288
1.9307505
-1.7309836
-9.9174271
0.6582052
2.0650589
7.8441544
-3.7390718
2.6829586
6.2197900
-8.7306290
2.5749342
-4.8700180
-3.1591713
-2.1225026
1.1929169
-5.1642623
1.2920897
-1.2640284
5.9815426
-1.5901353
-2.5847456
-1.2226298
-2.8675456
-3.0991642
0.5171058
-2.3790700
-7.6983156
-1.6902469
4.8727016
-3.8534625
0.4165208
-6.9776945
-3.0168493
32.9082947
-1.1499001
-2.9095488
3.8193126
2.5166061
-4.1124654
0.2013590
-3.3545930
-1.3344213
-0.8761820
10.0481529
13.7565269
-1.4025533
-1.2136281
-4.2544756
2.7764509
-1.7536027
0.1090785
2.6812007
-3.2711101
-3.8220844
-2.7925248
2.5468533
-2.4898310
0.4428411
1.1661506
-0.0452411
0.4743718
0.1224743
-2.2010915
-1.1824803
-2.4681876
4.4213061
-0.0674413
7.5285902
-0.2042820
-2.5125370
-4.9291224
-3.6582427
-2.4684401
0.4651722
-0.8568600
3.7402692
11.5699091
-0.1432680
-4.1544814
-6.8061776
-5.3689418
-1.3529338
31.1647339
-1.9270219
4.4964991
-1.6157933
-1.0346369
-1.9637903
-1.2171336
7.3724694
7.4786491
-3.2141666
22.1019478
2.4915512
-3.4607046
-2.6473064
1.9927663
-3.8164911
-3.2569070
1.7112266
-5.6315341
-1.2469884
3.6526146
-0.5832378
-7.9108696
2.8824272
0.2306544
-7.0941820
0.1949790
-2.7137833
-2.6901972
17.9487228
0.0157638
1.3373948
-0.8623493
6.3178759
2.1884706
0.1301797
19.4117031
-0.8028067
-4.6807227
-0.7105832
-3.5970795
1.3834780
-0.8279262
-4.1175175
-0.0114985
-2.6595585
3.2061477
-3.5718253
-6.5036273
-3.9073265
4.4194431
3.5332456
-1.2455020
-1.7022630
6.6565032
-2.6060300
1.3298178
-8.4894447
3.0125766
-0.5322592
-4.2373366
-3.3178623
1.9667742
-0.7291952
6.1412215
0.4200146
9.6935263
-0.8733824
-0.3920701
-0.5160203
1.4328560
-1.4333272
-10.4533844
9.0693226
0.6465779
0.1550960
-2.5694036
-0.4629134
-1.6856854
9.7772799
0.3420002
1.7755122
4.5055809
-3.0348263
4.4407816
3.1815913
-2.4470422
4.2326937
-0.7417233
4.9654799
9.0041285
-2.7097950
3.2660775
2.5108540
2.3354623
-4.5925765
2.1799529
2.8691602
-4.9018254
-1.4730241
-4.5470095
0.4142490
-1.5223137
-1.9164350
-0.1362549
1.3917369
0.3913446
-1.7724783
0.8354169
-3.4342844
2.1116781
2.6282613
-0.1318458
5.6045017
-0.4082300
-3.8015442
-7.0462584
-5.9260912
-2.8209867
-1.5135839
2.8679669
3.2678616
8.8323841
-1.0835050
-0.7349096
0.0663167
-2.9389515
-0.5462715
17.0699940
-6.9014635
-4.3430557
-3.1687217
2.3053515
-3.6060848
-0.3043597
6.7725863
11.8908720
-1.1193584
2.7774172
3.5879815
-2.3733094
4.0952730
1.8850074
-7.5154901
-2.5585387
1.3182049
-7.5323510
-1.8441238
3.2138112
-6.1371493
-1.7599386
1.9709623
-2.5534315
-4.4767952
2.2952127
-2.4189482
0.5813554
16.9135952
-1.2250786
1.9096769
0.8216839
2.9784908
2.5757582
-1.8392850
-0.1594429
-3.4689231
-7.9114013
-6.5962319
-0.5936477
-1.8961198
-1.7511601
1.2531892
1.0363015
-2.1458929
2.4783895
-6.2020335
1.4638387
-0.7355199
-0.3632102
2.6356251
-1.6457484
1.2614584
0.8473299
-3.5640869
1.3850915
-2.0935152
-0.5884721
-1.4989574
1.1524464
-1.3826847
0.1339495
-0.2937427
1.0414696
0.2750343
-1.2029688
1.3924420
-0.2117454
-1.7492108
0.1568978
-1.2044928
-0.2253080
0.5502960
2.6135266
-1.0931604
-0.8693023
-1.2426805
-8.8102980
10.5363140
-1.1993639
-1.2956761
1.1206313
-0.0749007
-1.0190411
0.4347424
-6.5224223
0.9912466
-1.2080846
3.4907672
4.5658574
-1.4878954
-0.0268566
-1.2332894
-0.9863938
0.6339637
-0.5643808
-1.5993630
-1.0887629
-0.7664469
-1.2319241
-0.0827185
-1.4306898
0.0506083
0.7468824
-0.1527391
-0.4008292
-0.3437711
-2.4480088
-0.5893407
-0.7251332
2.2648017
-0.0311439
3.3936238
-0.5437487
-0.4487396
-1.5347798
-1.1949772
0.1713158
0.4280745
-0.4964786
0.4350032
5.0595665
-0.6370531
-0.5884897
-2.3839815
-1.7729379
0.2969994
0.2172823
0.7051631
1.8038853
-1.1124848
0.4737913
-0.5630969
-0.4926764
2.9744651
2.5687897
-0.5777979
10.9852858
1.0657153
-1.7121556
-2.0387149
0.7087961
-1.2744533
-0.6019583
0.0847402
-1.6760280
-1.4185913
0.4408461
-0.8878719
-3.1185062
1.6527965
0.1554153
-2.5804443
-0.9522257
-0.4900944
-0.8471326
6.8780236
0.4352287
0.4879011
-0.2625831
2.2237473
-0.2035060
-0.7300310
6.9810619
0.4752545
-1.8095952
0.2984888
-0.3478777
0.7169290
-0.0539190
0.1606030
1.4778897
-0.9279841
0.8251860
-0.3925824
2.7811875
0.5891851
1.0253769
4.2107549
-2.8264513
1.2876617
4.1640606
-5.5820847
1.3079751
-4.0187035
-2.6696048
0.2190827
0.8039677
-2.8775198
1.9803222
-1.0152137
3.2274544
-1.2936993
-2.6198239
0.0228067
-1.4024624
-2.3535011
0.8104906
-1.0488335
-5.5227208
-2.0464776
3.2694161
-2.1117775
0.1907010
-5.6945381
-1.2001499
18.1696548
-0.9337584
-2.8565607
2.3062019
1.0175738
-2.5131125
1.3269304
-2.8668768
1.2977885
-1.1147740
4.7676101
10.2365112
-0.3736509
-0.5253765
-4.0102358
1.1918832
-0.6320586
-0.3447204
1.5997601
-3.0041251
-3.0542355
-2.0690804
1.2563618
-2.1881175
0.4657211
0.0346305
-0.1927763
-0.6313036
0.6887836
-6.7834978
-0.9524341
-1.4471968
3.0803635
-0.5139179
5.1137404
0.3877707
-1.6580970
-4.0926418
-2.2108021
-2.0631390
1.0857878
-0.7042083
2.3283410
7.4671588
-0.4288506
-3.1820862
-0.2007108
-3.3485098
-1.1065274
17.1511707
-1.1126578
2.6002805
-1.6996161
-0.8311810
-2.7844338
-0.6041479
4.5402942
3.7540834
-2.2805176
15.8239460
1.1629015
-2.5013151
-3.3326106
0.2429213
-1.7618651
-2.1997027
1.3727814
-3.1392624
-1.6119297
1.7488440
-0.6228580
-4.4561272
2.5107510
-0.3706709
-4.4815621
-0.6379508
-1.8430660
-1.4734635
12.0312500
-0.3127573
0.0750639
-1.2402951
3.9449940
0.6769712
-0.3528384
11.3741398
-0.2409178
-3.8365889
-0.5740098
-0.7386149
0.1801963
0.1264758
0.1499800
-0.5051357
-1.8685670
1.8820189
-1.7406681
4.0764065
1.2116400
2.0183017
6.4625182
-4.3003249
2.5437801
6.4118586
-8.8545427
2.0597634
-6.8882890
-3.5495257
-1.4440075
0.9132652
-4.4684391
2.4502540
-0.6734965
5.4614162
-0.8057934
-2.8871393
0.1773329
-2.3200505
-3.3627603
1.6431289
-2.3984272
-9.0498934
-2.4473999
4.2458735
-2.1850967
-0.5732718
-7.9244499
-3.4715180
27.1769428
-1.0571803
-2.4204926
3.8474247
1.6013228
-4.1463590
0.3237244
-4.5772653
1.5657228
-1.8435268
7.9805822
15.6301889
-1.3300161
-0.3992628
-4.8246045
1.8403776
-1.8315387
-1.2422378
2.4244759
-3.7698491
-4.6426530
-3.6349344
2.5112073
-4.5295167
0.7388903
0.7009966
0.0479811
-0.0598118
0.6466618
-2.6697977
-1.1090395
-3.1559887
4.8472276
-0.5264137
8.7655411
-0.4941160
-3.2573094
-5.4570694
-3.6398630
-2.8678458
1.3746517
-3.2762144
4.0137625
13.3718805
-1.2494256
-4.8453369
1.5774026
-4.7343454
-2.0620601
28.1596661
-1.6679255
4.0988517
-1.9344307
-1.2099737
-3.3018184
-2.6495636
5.3223920
5.6005263
-3.3180895
21.9841385
2.3540201
-4.1389399
-5.0357671
-0.1303410
-3.5605309
-3.1925900
0.7337734
-4.5631514
-1.3758048
3.5893583
-0.3886537
-6.8977776
3.4666765
-0.4611973
-6.5834851
-0.6207177
-2.0756361
-2.7396979
19.0233059
-0.4141671
0.7506605
-1.6623517
5.6565218
-1.8337837
-0.4059865
15.5107841
-0.0270259
-5.2865229
-0.9374633
-1.6741362
-0.1904957
0.5430902
-1.2738521
-1.1539246
-3.1278367
3.0685894
-4.0359778
1.8261243
0.4983504
-1.2171235
8.9863129
-3.7345681
3.1863718
-6.0023160
-8.5557756
-0.4002429
-4.6609430
1.4742597
2.6419115
1.2698647
-4.1214919
-0.3954526
0.3777532
2.2142479
-0.8383003
0.4375487
3.0581863
-12.7211084
-4.7101169
-1.1957910
-0.8420308
-4.9341927
6.6846809
-2.8941288
-2.7884665
-4.5504894
-6.0231147
3.6718662
8.7911844
-1.7188693
-0.2306570
3.2378292
-2.7085574
0.8260183
0.2675076
0.7539794
-0.2303533
-6.6281271
13.2584572
4.2751670
0.4067527
-2.3394761
2.6135924
-7.0030055
-3.3761363
-1.6012844
-2.4436395
-0.2286080
-1.0231346
0.1591822
-2.0268877
-0.5863868
-2.4417412
-0.2613078
-0.7764862
-1.0774951
0.6233066
2.9469643
-0.3068129
-0.6764159
2.6271329
1.9373496
6.4733901
-5.5056324
-5.3967214
-5.6657434
-4.3437052
-1.8773140
0.3599752
-1.0147610
1.4384058
10.9349871
-1.0927018
-4.2799144
-0.1436600
-2.1075430
0.5079403
3.4152300
-1.9634677
4.0142179
-2.7495058
-0.9775087
1.6985688
1.3397956
3.1565897
1.2017992
-5.4120688
10.6331539
2.2338231
-2.4277537
-3.8757949
4.9776425
-4.9844112
-0.9106096
-0.3975970
-0.8944839
-6.3377962
0.0802088
-2.1282451
-0.9851975
-0.8843476
-7.8719158
-5.8646255
0.2929847
-4.8402195
-1.6546811
16.3809299
-0.1181756
2.4817712
-2.7307217
5.4148579
-6.8640761
-6.2918873
6.9896350
0.1213454
-7.0096068
0.6509107
-2.7876933
-0.3843552
8.0414248
-7.2382827
-3.4315681
-1.7945689
1.6504002
-3.3948052
1.4496053
-0.8675343
-1.2234735
1.9804969
-1.7500101
0.7975417
-0.3119408
-3.7462952
1.4895651
-1.6121955
-1.1308811
-1.9491438
0.4511506
-1.7013130
0.0426947
-0.8401116
0.4260513
0.6302894
-1.3358263
1.3549185
0.3888830
-2.0699785
-0.0885151
-0.8125679
-0.0756942
0.9048855
2.1565831
-1.0993898
-1.9630175
-0.9854841
-11.3920975
9.7204552
-1.1635339
-1.7126290
0.8770429
0.0858060
-1.1746200
0.1725253
-6.4610014
0.2338331
-1.3698931
3.1771564
3.7209070
-1.4136707
-0.0524907
-1.6825162
-1.8581598
0.2228080
-1.2060539
-2.0922174
-1.0338950
-0.8465630
-1.3091253
-0.6130226
-1.8635036
0.1591315
0.4635558
-0.3466985
-0.5501257
-0.0605508
-4.6673927
-0.9974492
-0.2249911
2.1173823
0.1587511
3.1676378
-0.1518970
-0.5357949
-1.9725962
-1.2272063
-0.2014498
0.6661762
-0.1031489
-0.0325816
4.4819899
-0.7416228
-0.4635841
-1.6943804
-1.7766893
0.2096575
-5.1255841
0.5692476
1.4078180
-1.7308519
0.4322537
-0.3719845
-0.3282526
2.5259216
2.3756657
-0.8404556
10.8910751
1.0069680
-1.6858032
-0.9201820
0.5591609
-0.9152389
-0.2263715
0.1398860
-1.6625460
-1.9462771
-0.1217638
-1.0788218
-2.9951408
1.8895862
-0.0987690
-2.3800559
-0.9310101
-0.3462537
-0.3847193
8.4631262
0.5891405
0.2495965
-0.3422794
1.9849615
-0.7763538
-0.2178758
7.4431562
0.4250809
-1.8989711
0.0843713
-0.5030152
0.6440000
0.7893090
-0.1441247
1.6374613
-0.8882245
1.0128080
-0.3060576
1.3302977
0.8763365
0.6329440
3.0888691
-2.5197566
0.2153805
-0.3680641
-7.2542348
0.9292959
-3.0968854
-2.8126512
0.4977277
-0.6897112
-3.4204466
0.3559509
-0.8409252
2.5747662
-0.7317860
-2.7203615
1.0881737
0.1923213
-2.4943483
0.3185472
-1.2401409
-6.2218294
1.1652625
2.4631133
-4.0319080
-0.3999403
-4.7351704
-1.1504922
17.3653736
-1.7393433
-3.0543416
2.5994883
0.8125473
-2.2138519
0.0784991
-4.3182755
0.2589483
-1.6303763
4.3110032
9.0617380
1.2769140
-0.5923237
-2.1856000
-1.6253463
-1.1572037
-0.6823070
1.1602881
-2.6257634
-3.9027774
-2.6171684
1.1477189
-3.6048286
0.7616554
-0.2824495
-0.5588074
-1.3870336
1.9653577
-7.3896699
-1.3570998
-1.0850577
3.1796920
0.3420428
6.1344156
-1.1421121
-2.1770461
-5.4429469
-2.2023180
-2.3662469
1.8856647
0.1875891
1.5423172
9.1846638
-1.2995538
-4.7919178
-3.5865021
-3.1186020
-2.5114906
13.3829908
-2.3232498
2.1878490
-1.7994356
-2.0288589
-0.7714328
-0.0326723
2.8391485
3.1310163
-2.9739931
13.0327740
1.3154547
-3.0892682
-0.2506190
-0.1380298
-2.2687428
-1.6922482
-0.6650966
-3.3001640
-3.1100056
0.8933021
-1.1247861
-3.2094901
1.0534060
-0.3167258
-2.7818255
0.2023906
-1.6242063
-1.3285559
14.4128342
-0.0340408
-0.1187753
-2.4482787
3.1673431
-0.5167380
-0.1976204
10.9815769
0.2980596
-4.8317132
-1.2530799
0.0386368
0.1824157
3.8877978
0.8446313
-1.9968721
-1.5467525
2.0423520
-1.9505682
2.3746088
1.4518151
1.9944957
5.0924878
-4.3796473
0.5996160
-4.3959594
-9.2490044
2.5082779
-5.6226883
-3.8977206
-0.0400889
-2.3413639
-5.7446322
-0.8026705
-0.6647915
4.9301782
-0.5571378
-1.1833143
1.8998444
0.6618239
-2.7574582
1.8919474
-2.9798241
-9.0797186
1.0948188
3.5809400
-4.9864378
-0.5136531
-3.5716753
-2.9629791
22.8250217
-3.3319862
-5.1218448
3.6520257
-3.0226314
-2.8447282
-1.1387628
-4.6688285
0.0130950
-2.5762422
6.5296478
-2.6985569
0.3436357
-0.2044779
-3.1057787
-4.8252254
-3.4033034
-0.6951329
-0.2795390
-2.6517601
-4.4479141
-4.1435790
1.5164936
-4.5534124
2.2714636
-0.3633381
-0.6812546
-1.8962520
2.2252893
-10.9489050
-0.2325584
-0.5488362
5.5021381
1.5716919
9.9502497
-3.6489179
-4.0281963
-7.8493986
-3.2850885
-2.0489192
3.0146267
0.4289985
3.7867777
14.4189425
-3.0563765
-8.3090982
-12.2200747
-4.4343181
-2.8757455
23.3848686
-3.0830717
3.4931617
-2.8023281
-1.3217798
-1.0830123
-0.0093356
6.1340871
6.0917506
-5.4675570
16.7580032
1.2546827
-4.4798779
-0.8435503
1.6226962
-2.7526944
-2.3252838
-1.9559704
-4.9623804
-3.0088224
4.1030402
-0.2477842
-7.0569382
0.6588826
-0.7397722
-5.6409864
-1.2728913
-2.3801868
-1.6720927
18.2893295
-0.2452785
-0.4481255
-5.6696930
4.6319551
0.7111933
-0.3006935
11.6131201
0.2363686
-5.7980542
-0.9322116
-1.4061689
-0.3844033
6.2236028
-0.7387762
-2.9961388
-2.5025294
3.0114343
-3.3156121
5.8602147
0.1448219
-2.1744747
0.0722241
-0.5195960
-3.6543164
-0.6520449
1.4031733
0.5817673
1.0094819
-0.2020641
3.9373388
-4.7027860
-4.5683131
-0.6876827
-3.4521940
-0.7410269
-3.6812115
2.6903365
-2.5499365
4.8687673
-11.8300629
3.0568717
-2.1070733
-8.1687775
0.7882910
1.1549439
-0.7323319
-2.3339851
-2.0265911
-0.0741023
6.3870382
-0.2452887
-0.0152107
4.1283016
1.0244205
5.9636688
2.6922650
-0.1589823
1.4814860
-2.3128455
1.5038207
-0.3975324
-3.1999571
4.2265506
0.2593624
1.8545977
-4.8245530
4.0417004
2.4368353
0.4234553
-6.1411271
2.8420897
1.2854825
-2.0688808
0.2460851
3.4344115
-5.0137663
-0.1805870
-0.2860589
-0.9286425
1.3476187
-3.2703590
1.4080092
-2.5725911
4.8977299
-0.0433310
-2.1631613
-4.5431409
-4.7764544
-1.5077009
-5.3490610
0.2048697
1.4755269
11.3268604
3.6316261
-8.6499205
-0.1592730
-2.1635928
-7.5085788
0.5133135
7.4120412
-1.4219456
-3.5518453
0.8553932
-1.2715414
0.4004166
-0.4339912
-0.9849454
0.2928793
3.2580538
3.5240064
-1.7220792
5.4739213
4.5372548
4.4757357
-2.0905147
-0.4886023
3.9507923
-0.6299279
2.2976160
3.4347734
-5.0929856
-3.0640221
-1.4663293
0.4626403
1.8254142
-0.9320847
-0.9731191
5.7735858
-3.5207777
-3.1819072
-1.6504763
5.4002643
1.1544409
-0.0950704
3.7692959
-1.9335332
-2.0080814
5.1098027
-2.3963120
3.8128431
-1.9876992
0.5767320
2.6504924
-1.5844806
1.3332279
1.3848392
1.6257643
-0.2867503
-0.9090483
1.8285042
-1.7487597
0.5252591
-0.5224881
-3.6782103
1.3432864
-1.6398902
-1.0696995
-2.0510643
0.6701575
-1.0475986
0.0871541
-0.1066807
0.2869063
1.4928201
-1.4907895
2.4947186
0.3351759
-1.8944757
0.5081035
-1.3737584
-0.5732787
2.0068707
1.8929621
-0.7170354
-1.7044286
-0.2515714
-12.1695471
8.5493345
-1.3925874
-1.3034086
0.6636603
-0.4190776
-0.7775330
-0.5252555
-5.8892736
0.2358660
-1.5791487
2.3258307
5.8365970
-1.3866296
0.5752209
-0.5248430
-2.1318305
0.3737944
-1.4183021
-2.3494568
-0.7003124
-1.2805896
-1.2081683
-0.4916223
-3.1422236
0.2206450
0.0190221
0.0046624
-0.5325310
0.1569428
-5.6196976
-1.4302230
-0.4984405
2.2591414
0.1524676
3.2664528
0.0085154
-0.5138710
-1.8303000
-0.8872917
-0.0266968
1.3650986
-0.0272750
0.4598192
4.6759820
-0.7200134
-0.0877543
-1.2142614
-1.0478334
0.4447844
-7.6715159
0.9626614
1.0905144
-1.8802688
0.7693557
-0.5352346
0.0774415
2.2071536
2.4356976
-0.8031592
11.4901638
1.1229713
-1.6475372
0.3185648
1.2763350
-0.8338720
0.5662689
0.1616366
-1.6599629
-1.8478891
-0.3237753
-0.6327804
-2.6336148
1.8883036
-0.2696742
-2.3738649
-0.8411420
0.1401833
-0.8143031
8.9225740
0.8260204
-0.2013720
-0.2171473
2.5096867
-0.1777069
-0.0174891
7.5041051
1.1287773
-1.9803376
0.4245592
-0.9635884
1.1135700
1.5339731
0.8292245
1.7219549
-1.3854394
1.3107371
0.2175235
-1.8799781
-1.7613729
-0.2918397
0.6856444
-3.5067546
-0.0718279
-2.2513905
-7.8071814
-2.6274159
-5.0391655
-3.8078504
-2.7066956
-0.1282445
-6.0582943
-2.2207320
-1.2842200
2.1223464
-1.3536319
-2.5737183
1.8648170
-0.4631775
-3.1714194
1.8082691
-2.6540828
-2.5559435
2.2550023
1.0177405
-4.9425206
0.1571904
-3.2286391
0.5141127
17.1253910
-2.7261415
-6.1126523
1.4117603
1.1108207
-1.8828065
-0.4387390
-2.5793121
-1.4064504
-2.7527316
1.2674106
-1.1351459
-3.7219102
-6.3266120
-0.4628482
-4.1540885
0.7857906
-0.9337814
-0.4334656
-3.3788390
-2.0982528
-2.6408055
-0.7400301
-3.3743100
1.4696921
0.1821052
-1.0945516
-2.8084700
2.2453802
-6.7921362
-1.4025439
-3.0488377
3.1480093
-0.5908185
5.8748140
-3.4878953
-4.2872105
-7.7948251
-0.1403052
-2.9469783
0.9957930
0.1542972
-3.0464675
8.3909435
-1.6663518
-3.5146923
-10.3595114
-5.6991196
-3.9826720
14.0497046
-0.8330767
0.5144804
-2.5150826
-6.3060217
-3.1448042
-3.4048243
3.3874457
4.2643366
-4.5015430
19.3696804
-0.8130558
-3.9636610
-1.3567035
1.6028962
-2.7588906
0.2565024
0.6701605
-3.0386894
-2.4590230
-2.6153655
-0.7900472
-1.6685650
1.4301403
-3.1508825
-2.8141720
-2.1932502
-3.0957060
-1.1806219
20.9894733
0.3254362
-1.0845274
-3.1218958
0.6378913
-0.3283861
0.5357809
9.6749182
0.1696606
-4.8378825
-1.4168619
-1.5262374
-1.7051867
-0.1954061
-1.0903636
-7.8104734
-2.2051628
2.8404882
-2.4059854
-0.8681313
-1.0554878
0.6968722
2.5016384
-5.2389889
0.7182272
-1.7652340
-10.5169868
-1.6566087
-7.0470376
-5.3884511
-2.6413567
-1.1027901
-7.3088994
-2.2625289
-1.4793906
4.0770688
-0.6303342
-2.9865258
3.6243169
-1.1496671
-3.7048523
3.4531865
-3.6956236
-5.2388148
4.5449862
2.4350491
-5.6091037
-0.5757231
-3.8083401
-0.6554793
26.6607399
-3.6037748
-7.8670936
2.9311881
1.2101184
-2.4963377
-0.4187773
-3.9040315
-1.3276277
-3.3155968
4.1596446
4.4465160
-4.2220669
-5.7036600
-0.9915175
-4.2782845
-0.2822168
-1.6027969
-0.8583211
-4.1389813
-4.2099705
-3.7532916
0.3789633
-4.5808883
1.9479675
1.0846491
-0.8700334
-3.4641855
2.9314091
-3.1394794
-1.6241890
-3.6805601
5.8355427
0.0326086
10.9897881
-3.8116744
-6.0953946
-11.6489029
-1.7483925
-3.3917835
1.2984929
0.7581625
-1.5257666
16.3785553
-2.1880701
-5.4949036
-12.0351210
-6.6959968
-4.9405622
21.1732635
-1.0764426
2.7232912
-3.1865067
-6.9411283
-3.6452782
-3.9896083
4.6882153
6.7135296
-6.0137630
26.8961983
-0.7760936
-5.8319340
-0.1716659
3.0604899
-4.7523413
0.6400913
0.0095938
-4.4885058
-2.7965021
-0.8864137
-1.1388493
-3.8777766
1.5336909
-4.9624777
-5.2265453
-2.7708197
-3.1297495
-2.0054646
32.3869324
0.3613420
-0.4199663
-4.9983439
2.1198735
-1.1102989
-0.0242027
13.7250977
1.2834607
-6.2533073
-1.0820637
-2.6876447
-2.4367187
2.7205238
-0.8947626
-13.0182953
-3.8901212
4.3938608
-3.1285071
1.6708050
1.3734716
-1.3022938
3.9628944
-3.8418858
1.3262295
-8.5974541
-3.3361611
1.0854255
-3.3763092
-8.8538723
1.8136200
-3.4374456
-3.5001750
-26.4403744
0.9929407
1.7079694
0.2061759
-2.1491065
1.7935328
-2.5052049
-2.8660553
1.9018993
-3.0834219
-8.5650635
4.2169094
-0.2784146
-4.4277759
-1.7311329
-3.4211326
-1.0803144
19.2704029
-2.5803821
-2.1226275
3.8911378
0.4733907
-0.0843063
-0.2806444
-3.1488075
0.6945199
-1.9186367
5.6516843
11.4445486
-0.3428721
1.1224422
0.8676752
-3.3456342
-2.3405116
-1.7073523
-3.2340682
-1.9505183
0.7584707
-5.5954266
0.2479522
-2.5650043
2.1194146
1.3105091
-0.1449227
-2.7539062
1.4614956
-2.8277669
-1.1812438
-1.8578275
2.8127878
-0.2932639
6.0588775
-1.3061706
-4.4402909
-16.8781471
-4.3063078
-2.2750087
-0.3297264
1.5886446
2.9037218
10.4407110
-1.9898865
-5.6998887
-2.1133680
-2.1958013
-3.2585106
13.0789890
0.2162270
2.6769745
-2.9082057
-3.9598880
-1.9241967
-1.2326450
0.8002408
6.3661003
-3.9229562
13.8649769
1.0220251
-4.0457678
1.5169194
1.7887105
-3.4572785
-0.6589412
-0.5164803
-4.4011264
-1.4079479
2.6845121
-0.6043719
-4.7824697
1.5689982
-5.6496854
-3.0902483
-2.6296351
1.0275341
-0.6527737
17.9605331
-1.0046548
-1.3774583
-2.7373154
2.0916710
-2.2585680
-1.6420944
2.8362882
0.9936582
-1.4346861
-0.1723884
-2.3545260
-1.9638796
1.8815721
-1.4873261
-10.4176006
-2.7668686
3.0205126
-1.6369756
1.3448497
-0.1856701
-3.5799277
1.3203777
-1.6109849
-0.0790682
0.6499932
-3.7434137
1.4314009
-1.9408909
-1.7669207
-1.3054408
-0.1428016
-1.4481426
0.2038863
0.1491656
-1.3008778
1.6116425
-1.2256880
2.4824924
0.4648892
-2.0120234
0.8710937
-1.0999615
-0.2040626
1.4455813
1.4461666
-0.4514413
-1.9973795
0.2920781
-7.7820978
7.4218125
-1.5915698
-1.1334587
0.5738305
0.4368689
-0.9084387
-0.3315260
-4.9684062
1.0161097
-1.1891881
1.3820268
5.8010325
-1.0482403
0.5346610
-0.5117080
-1.0227710
-0.3503751
-1.7856548
-2.2126825
-0.7281217
-1.4640868
-1.7684546
-1.1538903
-3.7471266
0.5345438
0.3861856
-0.6942363
-0.2357941
0.3378874
-6.0731511
-1.8280662
-0.6405933
2.0038424
0.3376590
2.5935407
-0.5756667
-0.8325937
-2.2910128
-1.1457633
-0.0073711
1.4502877
-0.0916662
0.4236006
3.6649852
-0.9580768
-0.1317709
-0.9928511
-0.7296484
0.3067319
-8.9715157
0.9306520
0.6906888
-2.4120946
0.9646940
0.5571123
0.6165327
1.7385480
2.2909372
-0.8045045
11.0358791
0.9536481
-2.1381171
0.7850174
0.9946251
-0.8525342
0.6301065
0.0927992
-1.6951145
-2.1886716
-0.1954855
-0.8221239
-3.0202506
1.4533390
-0.2090893
-2.6020646
-1.4574016
0.1001445
-0.1137350
8.3775187
0.7869147
-0.7293301
-0.6060767
2.3579004
-0.2057627
-0.2134747
6.5494547
1.2355866
-1.3500158
-0.1150477
-0.3560406
0.2063133
2.2281952
0.3956528
1.6560977
-1.2004652
1.5847299
-0.0104391
-3.5827823
-1.8880967
-0.2908770
-1.5877825
-4.0693164
-1.5775437
-4.2851567
-6.5508876
-2.3413973
-4.8063698
-5.3050666
-2.4522541
-1.6529087
-6.6508656
-4.5536714
-1.3064258
1.6134050
-0.7321777
-2.9286993
1.2592539
-0.4009923
-3.6940527
1.5313956
-3.3916361
-3.4699593
4.7622781
1.0988954
-4.0810466
-1.0043569
-2.1979434
-2.2917268
16.2014675
-3.5601344
-7.9502039
0.8108503
-0.0971095
-2.6025105
-1.8827944
-3.4884140
-0.4840064
-3.4141140
-1.5100042
-2.5033090
-4.2389488
-7.0437641
1.1111701
-5.0236382
-0.3425493
-1.4868329
-1.5723006
-4.4270563
-2.4115958
-3.4385931
-0.5252102
-3.9768758
2.0307629
-0.7309112
-1.4762290
-3.9860170
2.2641923
-9.5946274
-1.6386358
-3.7580683
1.9305019
-0.9648629
4.7051401
-1.2680008
-5.6175671
-7.5958467
-1.0911043
-3.5733085
-0.0079245
0.6327482
-3.9147758
6.6468244
-2.6018169
-4.4249172
-13.2731533
-6.1781492
-3.4754486
27.4071960
-2.9122920
-0.3704379
-2.9499059
-5.3648591
-1.2505506
-3.2383995
2.8879786
3.4446032
-5.0479074
20.4092598
-2.0521302
-3.8145487
-1.0697082
0.3797206
-3.7957277
0.6184249
0.2757119
-3.3796787
-3.6143794
-2.1572084
-1.7363260
-1.5418992
-0.9305207
-4.8141856
-2.7581711
-3.1081858
-2.0828850
-0.8367593
22.5762901
-0.4702293
-3.0318620
-5.1580925
-0.3362865
-0.2335031
0.4822140
9.9178877
-0.2491779
-4.6466737
-2.5862117
-0.1516116
-2.1862283
-0.5406300
-1.2369845
-7.3231497
-2.3259618
2.6219552
-2.4143407
-1.5997491
-1.0874593
-0.3466824
-0.1549674
-5.8867126
-0.8066785
-5.3083429
-10.4572392
-2.5911827
-8.8201857
-9.4648762
-2.6205475
-3.3054268
-8.2532110
-4.8262310
-1.2439448
2.5361161
-0.1561419
-4.4633899
2.6638868
-0.6057046
-4.6592207
2.0709510
-3.7651839
-9.8856087
5.5194740
1.0975231
-3.1069276
-0.7298077
-3.3573997
-4.6957984
17.6197815
-3.6758049
-7.6416030
1.7084099
-2.4667304
-4.2985992
0.3400796
-5.0060554
1.2926096
-4.3274493
1.9675767
-1.5087698
-3.8593309
-7.6648178
0.4611416
-6.7595806
-2.0743322
-2.7858155
-1.8216015
-6.8108187
-4.2564378
-3.4291663
0.1421861
-5.0321817
2.2438276
-1.3491737
-2.3551569
-5.3546004
3.0727708
-9.0307989
-2.9630373
-5.6599174
5.5179925
-0.8213488
10.3082695
-0.3592355
-7.2645822
-11.0557489
-2.6979594
-0.9530924
-0.0365721
-1.2522562
-4.2645693
15.1889696
-2.6675165
-6.8049984
-10.8434219
-7.0272660
-4.4043388
11.0412741
-0.2562501
1.3375349
-3.4150677
-6.7100649
-1.9288770
-6.9092808
4.1026063
6.9916444
-6.6748757
14.2175207
-0.8275583
-5.6709018
-0.4296314
1.5686125
-3.5524075
0.7791783
-0.2547032
-3.3245974
-4.3821697
-2.7493401
-3.4539988
-5.3339930
-4.3064709
-7.4787993
-5.2647834
-2.2249153
-1.0784154
-2.6086912
27.1726913
-0.6183336
-1.9497344
-7.4269691
1.3917774
-5.1175117
0.4808577
3.0499771
0.5985959
-7.8351307
-1.7105840
-0.4554204
-2.8270259
3.3372910
-0.4209130
-7.4042773
-4.7611227
3.9585099
-2.5676563
-0.8444420
3.5661247
0.7203700
-0.0381142
-6.5565000
-0.2560606
0.1699555
-2.5756073
1.0046121
-0.8006801
-2.3476210
-1.4319118
-1.4095285
-3.7273540
0.3433486
-2.2949810
3.0098128
-1.2311054
-2.0869730
6.1541033
1.1515654
-1.8699130
1.8207439
-1.4897200
-0.1001592
-0.7944335
-1.9446734
3.4553814
-1.9893620
-0.1091488
2.0776894
5.1769547
0.5409109
-1.2343305
1.6984205
2.0250893
0.4051764
-0.3416540
-3.5332546
1.3620403
-8.3007612
-4.0091887
-0.6403269
-1.7211934
1.4479313
1.4428737
1.6224248
-1.6586012
0.8223800
1.1418997
-0.4929069
-1.2994593
-2.8258309
0.7403983
-8.3687544
3.3003020
-0.3668656
-1.8842720
-0.1128305
2.3322382
0.0063073
-0.1761811
1.8011377
1.8666310
-0.1809925
4.2588034
-0.0149905
0.0142424
-5.0900512
-0.6944026
-1.0957887
-0.3385849
0.5385756
10.4335480
3.2247858
3.9630771
1.2066280
-0.0712741
0.1808324
1.1784589
1.5493082
-1.1592877
-0.7348595
-1.9329283
1.3919437
1.2094212
-1.7083356
3.9622333
-0.0085668
-4.1663408
0.3900139
-1.7006000
-1.4057053
3.4696925
-0.0893273
-1.9438032
0.9404216
-0.8073983
-0.7635332
-3.2580695
-1.8981750
-1.6130532
-0.1066182
1.8031965
1.5003392
-2.7968600
-3.4067605
1.5248014
-4.3433614
3.1588914
3.4116013
-3.8011911
0.7793478
1.3626229
-0.7100949
-0.0922461
0.2725239
3.1449938
1.5449238
-1.4715943
-0.3526354
-1.7458663
1.2282865
0.3514339
-2.4454021
-3.3825228
0.9247991
4.1532483
1.9192703
0.0454322
-4.6290808
0.4865503
-2.1193871
-0.5358245
-0.0128798
-3.0938065
1.3798600
-1.7026103
-2.1411326
-1.8561739
0.0863590
-1.2064779
0.3655570
0.4040604
-2.0239420
2.0044155
-1.6042616
3.0628777
0.2794987
-2.3560841
1.1281179
-1.2437835
-0.4163661
1.6194743
1.1636999
-0.3926023
-1.7567489
0.8619657
-8.3138218
6.5749011
-2.3498530
-1.4482155
0.3297390
-0.8604782
-0.6659644
-0.3775013
-4.8426886
1.1997645
-1.6572654
0.2922234
6.3636551
-1.6214982
0.8654209
-0.1482161
-1.7388778
-0.2102118
-2.3236771
-2.8527460
-1.2256266
-1.4732201
-1.8923534
-1.5139784
-5.8204188
0.6032199
0.0345218
-0.7287408
-0.3967063
-0.1769545
-6.0997648
-1.6719518
0.0767400
1.8940535
-0.1402556
2.1988559
0.3428777
-1.0313474
-2.8139322
-1.2629389
0.4428883
1.0952244
-0.1635006
0.4118790
3.3755898
-1.2046496
0.1354012
-0.5970929
-0.3201512
0.4511337
-4.4843574
0.5446659
0.2908006
-2.8906341
1.1519939
0.5848756
0.6515457
1.5092514
2.7384622
-0.8328451
11.4132776
0.8948020
-2.0184085
0.8835379
0.9431946
-0.9640397
0.6288073
-0.3988864
-1.6355325
-2.3408434
-0.0797586
-0.8694225
-2.8207726
1.6022296
-0.7722464
-2.9056859
-2.4735727
0.8957615
-0.1612600
7.8081188
0.6862609
-1.1992311
-1.3377142
2.2774532
-0.0949050
-0.1655745
6.5273824
1.5179261
-1.4096822
-0.1429330
-0.4548265
-0.3886364
2.0338445
0.4722309
1.7175250
-1.5181625
1.5881040
0.5185612
-1.5686340
-1.2347369
-0.7017875
-3.7121952
-3.2029958
-2.2455940
-6.2943368
-8.7464342
-2.1672552
-4.2675123
-8.1161251
0.1189467
-0.8533432
-6.7868705
-5.6170068
-0.6217523
0.9564307
-0.1068851
-3.7556591
1.6573344
-0.5608077
-5.3616180
1.4612368
-3.7069535
-2.8496280
4.9527617
0.2111093
-3.7304132
-1.5558456
-1.8178686
-2.8647645
19.0412750
-3.5674670
-8.2753820
0.0200078
-2.8133144
-1.9309568
-1.7416215
-3.4513481
-0.0384451
-4.9280877
-4.7748199
-3.2518525
-4.9241371
-6.9850445
2.1328201
-6.8299403
0.0225857
-2.2463658
-2.4001043
-4.7698331
-0.3071378
-2.5244334
-1.4771953
-5.8754573
2.1529555
-0.6142057
-1.3085715
-4.5391469
1.6913227
-6.8506389
-1.1885154
-4.0908780
0.2976325
-1.1882248
2.2926910
-0.4205348
-6.2346978
-5.9421721
-1.7765971
-2.2365963
-0.6065114
-1.1388558
-4.0071468
3.5514514
-3.0462537
-4.4164357
-12.5607309
-5.5231676
-3.0868161
37.5263863
-2.2530739
-0.8162132
-3.4543240
-4.8263059
-2.5959144
-3.3106735
1.4482971
4.2678952
-5.3895230
23.5859203
-2.6817424
-4.0233283
-1.4380637
0.0269302
-2.7464886
0.7747681
-3.4863911
-3.8948236
-4.2553091
-1.9315869
-0.5005814
-2.3726246
-0.3100829
-5.4558811
-3.4907143
-3.5387645
-2.0096948
-1.0005116
21.7157078
-1.0186716
-5.4467316
-5.4449644
-0.5585255
-1.2102157
0.2662632
13.8915691
0.2523705
-6.0946531
-2.7689230
-1.2848350
-3.4256334
0.6230009
-2.2841601
-8.2365370
-2.7741857
3.0164850
-1.5151012
0.0081451
-1.4689763
-0.2212261
-3.1912043
-5.5767446
-1.2782902
-5.9017005
-13.8794479
-0.6222489
-6.4106584
-13.7614384
-1.5596424
-1.8905017
-8.0629807
-9.1898928
-0.3270938
1.8137370
0.5280521
-3.7492907
4.3418503
-2.1059988
-5.1851735
2.7035334
-4.9937429
-7.9053035
6.1452689
1.4459409
-5.7402048
-1.9623358
-0.7357709
-7.0618515
19.8703232
-4.2202463
-8.1361904
2.4382894
-1.8741696
-2.9135234
-0.8360836
-5.8689585
-2.5667768
-6.0249352
-4.4360170
2.1102355
-5.6913414
-5.6637115
2.5250430
-8.8165236
-1.0844072
-3.1784346
-3.7341332
-6.0862427
-0.9852814
-3.1608844
0.1132466
-8.1588402
1.3286645
-0.3326171
-1.2782499
-10.1774836
2.2189381
-13.5150127
-1.5702020
-6.7102275
3.7068787
-1.3657491
8.2776575
2.6972244
-8.1765976
-8.1828232
-3.9402490
-4.1038427
-0.2592559
0.3190463
-2.1182549
12.8391361
-3.5610437
-7.0710263
-7.1819983
-5.5453839
-3.5036664
7.3235545
-1.6106439
1.7203773
-3.2654676
-3.7335513
-1.9070488
-0.4575678
1.0259013
6.4336715
-6.5261445
29.5551796
-2.2730167
-6.8321357
-1.4358995
2.2240622
-7.1373887
1.1276251
-4.6178870
-5.7663517
-5.5106106
-0.3372818
-0.6332746
-6.1260834
0.7005118
-6.6982660
-6.4877243
-4.4942393
-1.9705167
-2.3328600
37.0632668
-0.4565132
-4.7592893
-12.3845959
0.4396383
1.4949247
-1.8131337
13.5952950
2.2766607
-9.1141996
-1.3949113
-2.3450565
-3.6289785
2.2102251
-0.0003056
-7.8321509
-6.1775789
4.1205502
-2.3677354
0.2338354
1.7783650
-6.4818578
1.2419927
0.9649742
-0.1810217
-4.0249147
2.6961114
-1.1267363
-4.7720618
-4.1338930
-0.4613735
-7.0677924
-3.0462825
-2.6851554
3.6810436
-1.2093054
-1.6453503
0.0385747
0.5917377
5.0359097
-5.9900231
5.8164611
-4.4022975
-4.2391686
2.2208717
-4.3507853
8.0315323
-0.8754291
1.2256896
-0.3736365
4.3518724
-0.9151852
-2.6605730
1.9599564
2.2488980
-1.6604459
-6.9486847
0.7567750
-1.8075008
-6.4512997
-3.5184405
-0.0389265
-3.6366844
-5.8258700
0.9719663
-0.3452870
-3.1970987
-5.3038845
13.4636374
-4.4056420
-2.0493863
1.8085449
-1.7605690
-1.8047637
-2.3264601
-0.5715205
-2.3003857
-6.4332385
-0.6268897
-4.5941076
0.8836475
-3.2481320
4.1689129
-2.2276697
5.1922493
-2.6586461
-2.6288321
-1.0064983
-3.8371720
8.4212370
-4.5704780
-1.6306233
4.8686485
2.7345991
3.1534321
-11.1980305
-0.2417018
1.0763894
-4.4037266
1.7553289
5.9333091
3.2103133
-1.1932234
-1.7915789
-2.3172963
12.1524296
-4.0950584
-8.4733829
-3.5852227
-0.2013419
0.5229914
-5.9614081
2.5397429
-0.9712694
4.8320336
-1.8824565
4.1313834
0.0007461
-3.2492745
2.8507164
-0.1597586
-7.1536641
-4.8327270
1.3205446
0.5643189
-2.4253469
0.2683973
-4.2657661
12.6992865
-2.7729521
-3.8296874
-3.0974107
4.2525501
4.8987408
3.2171223
-0.8065419
1.2830290
-11.5269680
-4.8330975
-3.0182903
0.3508372
-6.8122029
-4.7283249
-2.5332129
-5.3319387
3.3127632
-4.6061192
1.9890528
0.4612790
-5.8389521
0.1911946
-2.2008228
-1.2718943
-0.9594259
-3.1894093
1.2626247
-1.7229280
-2.1465349
-3.2948258
-0.5740154
-1.3048321
-0.3732143
0.3271257
-3.1261096
2.0780377
-1.6843331
3.2763562
0.5116048
-2.4092114
1.5117146
-1.2429031
-0.6993211
2.2225811
0.4406420
-0.0693496
-0.7017142
1.1452932
-8.6785450
6.1665359
-2.9396718
-1.0900745
0.0480602
-1.0416708
-0.9162621
-0.2150447
-4.9906206
1.2513309
-1.9132906
-0.0173330
5.8308291
-1.4768385
0.9660467
0.3843987
-2.6546013
-1.1184102
-2.5234835
-3.3143272
-1.5330472
-1.6824228
-1.8264940
-1.3139634
-7.3489947
0.6132727
-0.5802560
-1.2836739
-0.7394782
0.0079562
-7.0808644
-1.5522426
0.1011367
2.1962783
-0.0325822
1.9861881
-2.3739619
-1.1133180
-3.1441302
-1.4571481
0.5664211
0.8894151
0.1442643
0.6898164
2.6886299
-1.5843552
0.3315157
-0.4760636
0.1225412
0.1968006
-4.7473273
0.2489942
-0.1849042
-2.9310546
1.4330578
0.4182037
0.3657854
0.6515594
2.4046724
-1.0713112
10.9669285
0.8218332
-2.6126502
0.8512957
0.5962232
-1.1776710
0.8150125
-0.0016908
-1.6048431
-2.9993918
0.1984818
-0.6334604
-3.0088558
0.9838710
-1.1906840
-2.6917200
-3.3345938
1.3539740
-0.2595547
7.9793625
0.2290609
-1.5493492
-2.1963978
2.4555514
-0.7737555
-0.0202087
6.3877435
1.7244350
-1.0884415
-0.1225091
-0.6137649
-0.4782643
1.4864345
0.4674000
1.6535597
-1.5039502
1.6404673
0.1540193
-4.0719419
-2.3705530
-1.3089826
-4.5761690
-4.3948913
-3.4487593
-8.7218380
-11.7956028
-2.1211829
-4.3772197
-8.2099905
-1.1615227
-2.4541674
-6.6940498
-4.3004270
-0.9775227
0.3381425
-0.1778270
-5.1016722
3.0067582
-0.4323803
-5.6641989
2.2109389
-4.9230614
-3.3277874
4.2822881
-1.9434144
-3.0197678
-0.7942342
-1.4139308
-1.8699039
18.9705925
-5.0316901
-8.3757753
-0.7056288
-3.4887457
-2.3530450
-0.6258057
-4.0933795
-0.9332652
-5.6462579
-4.3577299
-3.0783451
-4.8659058
-7.4831066
2.1963089
-8.5389404
-1.7270019
-2.3042181
-4.1491170
-6.2006016
-0.7872192
-2.3220682
-2.1445305
-8.8553562
2.0100782
-1.3100798
-1.8190460
-7.0523458
2.2406366
-4.1428041
-1.0961936
-2.9258471
0.1876184
-1.6344119
1.5451323
-0.6804457
-7.5976410
-4.6801405
-2.3973265
-2.6052547
-1.6242708
-0.0448530
-3.7636602
2.3031387
-2.7691426
-5.6261587
-12.7699471
-4.7407293
-3.2380390
12.9580345
-2.1962435
-1.0812395
-3.2916241
-4.2683187
-1.4075004
-4.6938596
-0.3491109
4.1236191
-5.3164539
24.7922707
-3.7957361
-4.3698893
-2.1808960
0.0252068
-4.6933327
0.8390480
-4.3542123
-3.9172411
-6.4501085
-1.5360374
-1.4678587
-1.4786177
-0.7914191
-7.4903998
-2.5042100
-3.7823420
-0.6179314
-0.9682056
24.5715027
-1.9936589
-5.8694892
-11.7998667
-0.3611359
-0.6244923
-0.0161131
14.9950113
1.2238129
-7.2388959
-3.3233640
-1.9190897
-3.0423989
0.3008640
-1.4212765
-10.8574800
-2.5088863
2.9767125
-2.3307748
-3.2561526
-2.7738066
-0.4863396
-3.6146736
-6.2500329
-2.0905318
-10.7841682
-16.5551414
-0.1952311
-6.4929705
-20.1663208
-2.4678178
-4.9150858
-7.5806117
-5.1511431
-1.2652128
1.6211247
-0.0692821
-9.1547661
7.9428968
-1.1098593
-5.7496662
4.9697123
-7.7985902
-6.9470639
4.6534462
-0.1511274
-2.4275730
-1.0620821
-9.6943293
-4.0420165
26.5215321
-7.0803199
-7.7153683
2.3634889
-1.3439698
-2.7155497
-2.5304730
-5.0837522
1.9830244
-6.4880185
-4.8709478
5.7003531
-5.1598692
-5.1584415
0.6170332
-9.7417440
-3.3115537
-3.3356395
-3.9305587
-8.6795464
-1.3590652
-3.3052309
-0.0616629
-15.9682856
1.8591462
-1.1926957
-0.6917360
-9.7334833
3.5692675
0.8983644
-1.6942352
-3.0383172
2.6088743
-1.5645509
5.7927556
1.4625311
-11.2325096
-8.5436707
-4.7739663
-0.1333747
-1.9234229
1.8227243
-1.1771123
8.8199511
-3.9738605
-7.3158040
-6.8540854
-4.3802524
-3.5708671
5.8865027
-3.3477011
3.4508893
-4.1020942
-3.6013057
-1.1264142
-1.8832414
-2.3639703
8.5229139
-7.1219044
30.7010021
-3.6487517
-5.7286325
-2.5178072
1.6303345
-5.8364706
0.4159208
-10.0506496
-6.2258167
-8.8071270
0.6513382
-2.0026598
-4.8380876
-2.2509954
-13.6817236
-3.3121791
-1.8641444
1.2884126
-1.0797545
39.5336227
-2.5787439
-6.8313041
-14.8211279
1.1194198
-0.1968298
-0.9098976
9.0047979
4.6004815
-11.3774309
-2.5686920
-2.0053091
-4.4517016
1.9437951
0.4179884
-13.9451323
-4.4232850
4.9058180
-0.1058382
-13.1643057
0.4151091
-7.5766940
3.2174597
-7.7834940
-1.7703238
7.7213759
2.8869703
2.0758092
0.6600742
-3.5691473
-2.9869988
1.4734550
-6.2806907
-2.2597673
-4.5524392
-4.2789350
-1.6981397
1.8898801
4.8036151
-3.0194633
-4.5457177
7.8511853
0.6565401
-3.2428682
0.3145098
-6.5283961
-0.0050479
-3.7053790
-1.5695528
2.1782997
8.2284861
-1.0466260
-6.1382284
6.6779275
-1.9128829
2.1770127
0.6711463
2.5050535
-3.8690138
-2.2580197
4.0275626
5.9463391
-2.4454865
-0.9447106
-2.8283050
0.5091010
0.8976767
-3.2103033
-3.4915559
-2.6793551
-0.3813576
-6.8806157
-1.1297182
-7.1040816
5.8128657
-1.6567085
-5.7932520
-3.6646652
2.4601498
-4.9118237
-5.3712316
-3.6968527
2.6449940
0.2482847
5.9989634
0.0374291
-7.9431071
-5.9744954
-3.8234391
-0.9991239
-2.5709441
-7.9620986
-0.1494928
11.2805271
3.9587302
-10.7175026
0.0761916
-0.1391747
-0.3528808
-2.0368123
-0.9357950
-0.0202070
2.0793059
-1.2403463
2.0182707
-3.1038013
2.8675396
-10.2157698
-1.3322648
0.6677155
-6.4661326
-1.7149991
-1.6819810
0.3456558
-6.6443162
2.9702499
-1.9901125
-14.8280945
-1.0222099
-0.0222674
-2.4794450
-5.4658036
2.0613782
-5.5045877
-7.4368372
-2.5875256
1.7908672
-2.9460874
11.7891150
-1.2406725
3.0766747
-4.3400402
4.7413979
4.7740006
-4.4792423
1.6970437
1.7943935
-3.6493266
-0.4338320
2.2513051
-7.2761984
4.2761316
0.5409055
-8.5796337
-2.4437373
6.2499480
0.5577937
2.5367792
0.7740719
-8.1775560
-2.0225203
-2.7548144
-2.0403981
-1.1994326
-2.3262422
0.6423029
-1.6283646
-2.3367105
-4.5920644
-0.6834340
-1.2880696
-1.8117611
0.3259559
-4.5009899
2.3237927
-1.6152685
3.7941616
0.4985607
-2.6250403
2.0210476
-0.7195066
-0.9615692
2.5893614
-0.1850327
-0.1050605
-0.4644890
1.8240250
-7.2561660
5.5262942
-1.8914928
-1.3725828
-0.1735368
-1.8271077
-1.1981143
-0.1059834
-4.0564466
1.6680480
-1.8475268
-2.7197330
6.1349344
-3.1152508
0.9857302
0.2060238
-2.9733353
-0.9558187
-2.6214144
-2.8370688
-2.2438297
-2.0810022
-1.4742489
-1.8446850
-9.0775385
0.6746261
-0.9113559
-2.0583735
-0.8267719
-0.7562824
-6.7443118
-1.6191406
-0.0651390
1.8503546
-0.0954397
1.0171670
-0.1169094
-0.9963912
-4.2511535
-1.2487694
0.6614225
0.8484474
0.7706972
0.4040275
1.3841821
-1.1483836
0.5831832
-0.4074338
-0.0756236
-0.2166937
-3.6127727
0.9384016
-0.0649135
-2.9303861
1.0360490
0.7548550
0.6876736
-0.2697288
2.4472077
-0.9367976
10.5893106
0.9271368
-2.6688962
1.3999203
0.0560952
-1.1354933
0.9397506
-1.3141345
-1.6845104
-3.3628457
-0.2282594
-0.6353051
-3.7552962
2.0295284
-0.9841864
-2.6657107
-3.7769730
1.5034318
0.0288858
10.8083658
-0.4862265
-1.1235151
-2.2718868
1.2670434
-0.7125505
-0.0780863
3.5439422
2.1050768
-0.2550222
-0.9010835
-0.7617338
-0.4527229
1.6003760
0.7361752
1.6543076
-1.6315184
1.4238448
0.1136979
-0.7867781
-1.8945819
-1.5856702
-8.0129976
-4.5545273
-3.8248980
-12.0040455
-9.6781092
-3.1682718
-4.6790848
-7.5571141
-3.3660984
-2.8350768
-7.3752203
-4.4495068
-1.9839140
-0.5340079
0.3129432
-4.8797336
3.1192915
-0.2031044
-6.2786870
2.5631113
-4.9332461
-3.5604036
6.3408976
-3.8458536
-2.7546084
-1.4302803
-0.2936720
-2.0363817
19.8564014
-3.5800197
-8.8100662
-2.7023282
-6.2942538
-4.2510443
-1.2894620
-4.2028227
-0.3312229
-6.0089626
-8.2491045
-5.1318030
-6.4181070
-9.5912189
2.1195092
-9.4837313
-2.7988563
-3.5784783
-8.0529642
-7.5035586
0.6563224
-1.6795176
-3.5753202
-9.3042316
1.4283743
-1.5825844
-2.7783778
-8.1753092
0.9443924
-1.9385861
-1.4974279
-2.2599683
-0.4277963
-2.2557158
0.5680124
4.3207521
-7.9867682
-6.0485015
-2.2264094
-0.8970729
-2.8552997
-1.0617831
-4.9220033
1.2444729
-2.8990879
-5.2278533
-12.8626108
-5.1275473
-2.8947477
5.5596862
-1.5897186
-1.1215147
-3.5958912
-4.2327733
-2.1009605
-8.1093311
-1.2128025
3.9191368
-5.6506834
22.8619823
-4.9476628
-4.3494830
-2.7881663
-0.8230339
-3.6201069
1.8982065
-6.7832637
-3.7523139
-9.2147732
-2.3307877
-2.2105424
-1.0463938
-0.0039505
-9.0159359
-3.0018210
-4.2871113
-0.6956499
-1.0726731
23.7309361
-2.8047009
-8.0160418
-11.7673903
-1.8916953
-4.2055688
0.4810847
14.3111582
1.7220271
-6.4085212
-4.3642201
-2.2903976
-4.6613545
-1.3995501
-2.7237463
-12.7321892
-2.8742661
2.3938642
-4.0339808
1.7945426
1.1793979
-1.7396436
-9.9154606
-7.2340708
-4.1320167
-14.2169533
-6.3389196
-2.6464038
-5.0696168
-18.9502010
-2.0657423
-5.2714567
-8.7011862
-2.3325114
-0.9345259
-0.3617464
1.8926026
-9.4357166
5.5795784
0.0330239
-6.7930918
5.6218243
-6.7416005
-8.4595652
9.4248734
-4.3678613
-3.2666204
-3.3268273
-1.6181571
-3.8365428
20.7345924
-4.6744456
-12.3617287
-0.4170498
-6.9836874
-4.5931306
-0.5885715
-6.9653826
0.1789413
-6.9807935
-14.8472281
-0.1106150
-7.6883135
-7.4055071
2.5459127
-10.6175413
-2.6161726
-4.3908110
-14.9143372
-10.0981483
-2.8062093
-4.3499713
-3.4631135
-9.5963163
1.6901759
-0.9301564
-2.2491150
-15.8858366
1.4504906
-6.8613310
-3.1856527
-3.3913159
1.9858799
-3.8541780
4.8219562
-1.3677902
-10.4417219
-10.2463198
-3.1160829
-2.8646781
-6.1894403
0.0332206
-4.0743203
8.0515537
-3.3751194
-8.4988966
-10.9200754
-4.9657226
-4.1581774
-2.7357721
-1.9510036
-0.3577817
-7.1967978
-3.7342191
-2.0562007
-8.1665030
-1.4439980
2.4489002
-9.2320156
12.3845615
-3.9484820
-5.4837699
-1.4749135
0.3733965
-10.9870863
2.9572988
-5.9675341
-3.6438708
-15.6445723
-1.0030550
-0.4341321
-1.9755216
0.5096179
-10.8209162
-4.4577641
-4.2743497
0.1426313
-2.4639378
25.3056908
-3.3441658
-11.8045540
-16.3280430
-1.2690556
-6.8999228
1.1003896
4.9867873
2.1271825
-5.0642033
-3.8700147
-2.9357016
-4.5745287
-0.2278261
-1.4789349
-16.2208786
-5.9129868
3.3102548
-5.7148595
3.6991422
1.1918527
-2.8154821
-1.7250178
-0.8255634
-0.2439758
-2.0828736
-5.4143715
0.3436150
-3.2368531
1.8064795
-0.8647697
-0.4410932
-7.4570460
-0.4224055
-1.9819599
-4.2071238
-1.9050676
3.1141663
3.3452966
-6.0643067
-4.0900469
0.0506577
0.6155536
-2.6012990
9.4955244
-3.2541249
4.6575079
-6.6457124
0.3393498
0.4477010
2.3629527
-5.1370087
-2.1253252
5.1027975
-0.8041140
4.3965473
9.5614710
-3.1340501
-0.5824803
-1.2296392
-0.3722576
0.6552706
-0.4298229
1.9614065
0.6694171
-1.4704846
-2.5884378
-3.8112640
0.8190929
-2.2668293
-2.3143249
-7.5247869
-6.1115942
-6.8097286
-1.3314023
1.0668200
-4.2989616
-1.7568246
-2.4882052
-1.3675150
-1.0517030
1.0473797
0.2038826
3.8719537
1.2819847
0.4245426
-3.9359453
-3.0251811
-4.6290741
0.4227995
4.9857101
1.6037418
3.4350824
7.6623116
-5.2500896
-11.0668554
-0.1405455
0.8546755
-2.5449038
-0.3709636
0.2182603
5.4371753
-2.7637560
1.5730689
-4.4563055
4.9532595
-0.9910501
-1.4222329
-5.1997147
0.2850089
-1.6661370
-7.6496739
2.2749445
-3.3058305
-2.1115065
-1.5599197
2.3713613
-6.9210176
-3.8212321
2.7557492
-3.1195993
-9.4761257
0.4907937
-0.5674586
-8.2314730
1.2100295
-3.0296371
2.2441168
7.1909471
-3.5117869
-11.9925680
2.1560354
4.2191567
-1.1050147
-4.2383356
-0.8669093
1.8784376
-0.6448354
0.1164737
-14.4767799
-1.4370592
1.0413502
3.7514489
-6.2130198
-5.6193571
2.1929917
-3.5459459
2.4127774
1.2017244
-12.3368702
-3.4708817
-2.6292815
-2.2853632
-1.1198183
-1.7655871
-0.3252626
-1.6919420
-2.5909357
-4.4155688
-1.0084549
-1.1828148
-1.0566229
0.4988731
-6.1821637
2.5880229
-1.5831590
3.8411100
0.5824965
-2.5393741
1.5228729
-0.9156408
-0.3566345
3.5286961
-1.5308119
0.1794616
-4.9075251
1.4443785
-5.5842509
4.5831122
-1.7763685
-1.3606160
-0.5854610
-2.4704134
-1.5284573
-0.1326672
-3.8714221
1.3745112
-1.9134920
-6.5254669
6.1845555
-2.7570961
0.8840542
1.5050938
-2.2947686
-1.4274521
-2.9886179
0.6674979
-2.3107011
-2.1582251
-1.4119935
-1.7425491
-11.1401081
0.5689402
-0.6139699
-2.1812382
-1.4537706
-0.9784879
-5.5904346
-1.4150244
-0.9201028
1.6715168
-0.1447077
0.3380702
-20.8601036
-1.2389842
-5.4142566
-1.4357537
0.9798713
0.8317597
-2.2143381
0.6646791
0.1912777
-1.7469832
0.8032858
-0.2107794
0.0610542
0.3720047
1.2710968
-0.3246608
-1.1909806
-2.8992651
1.8091537
0.4969794
0.9362261
-0.5638521
2.1790111
-1.1608227
10.3396225
0.6154341
-3.1531956
1.8177977
0.0877546
-2.7904742
1.1851554
-1.9286542
-1.6532978
-4.0736866
0.2085301
-0.5161700
-3.0992727
1.7840840
-1.3998463
-2.8895240
0.6389976
1.6881932
0.0832611
9.6851568
-0.7900221
-1.9097047
-3.3628941
0.4399063
-0.8034804
-0.0291684
3.2737641
2.2664843
-0.1241960
-0.7756864
-0.7620181
-0.9049217
2.4496114
1.0761563
1.8533155
-2.0679860
1.4045370
-0.0239069
-1.5365661
-0.8684625
-0.5807585
-10.9580097
-3.9835904
-5.2490773
-10.8484831
-7.0931315
-3.3663516
-4.6657915
-6.5999470
-2.9354439
-3.5991478
-7.2228036
-4.2802815
-1.4053164
-0.4968997
0.4854279
-7.3358321
3.5472984
0.2270252
-6.5211544
4.2338147
-7.2825713
-3.2493303
7.7115979
-4.5090752
-2.2967901
-1.9736784
2.2935734
-2.9749455
22.3296432
-5.4911413
-9.9586029
-3.2099130
-8.5065107
-4.0052924
-1.9733682
-5.7659278
-0.4594284
-5.8769751
-12.1487503
-4.8651686
-8.7531719
-9.3168402
2.3863149
-8.2403555
-3.3307898
-3.2867582
-18.8947697
-8.1276007
-1.3167945
-1.3215781
-3.2106838
-6.7781305
2.2237616
0.8392986
-3.7501814
-10.4893723
-0.3907053
-3.5624976
-2.3714499
-1.8440119
-2.2974584
-3.6042666
-1.3059973
10.0222616
-8.2887754
-5.5747204
-1.5687686
-2.5395360
-3.5423000
-5.4011836
-3.8371615
-0.9346221
-3.0708351
-6.3419337
-13.6313381
-4.8010292
-3.1442003
10.4332438
-1.7546788
-2.1494694
-2.7905262
-3.5191541
-1.4000150
-2.8398314
-2.1677604
3.8774316
-5.7280378
23.7731743
-6.2908597
-4.3098040
-1.9944793
0.4803402
-3.1661537
2.9388642
-10.2051134
-4.8708086
-9.5177145
-1.6268601
-1.0682908
-0.6346470
3.1859157
-9.7165003
-2.9298184
-3.7386928
-0.4802823
-1.1388893
24.6297894
-3.0671766
-10.7780132
-17.2991257
-3.1069696
-1.2805557
1.1837933
14.0218496
2.1282635
-5.0466323
-5.4701524
-1.0833871
-4.4275804
0.9490718
-2.2735395
-13.8701963
-2.9433413
2.3500931
-3.9736032
0.7795707
0.4858178
-0.6451184
-13.4278650
-7.0648298
-4.4277425
-12.1964760
-12.9552450
-3.0794673
-7.1584496
-16.9418049
-7.0580769
-6.0168247
-8.1882648
-3.9736872
-1.2621466
-0.0384531
1.4237837
-9.8204670
7.1680131
-0.2919163
-7.2572398
5.8878040
-7.9473553
-7.1472597
10.8572264
-4.8378396
-2.8080134
-4.8964248
2.6972289
-5.7915163
21.4623909
-9.0072422
-10.6277533
-2.6632583
-9.2260180
-4.6787491
-4.2147770
-6.8023171
0.6991305
-7.3812585
-18.0221958
2.2302880
-7.9997435
-6.7372370
3.9816682
-9.6293068
-5.5517578
-5.5865226
-23.1694050
-8.9762859
-3.8365018
-1.8676211
-3.5516193
-4.5255651
3.2860093
0.5420841
-4.2433047
-18.5131721
0.1361177
-3.1188087
-2.6067374
-3.3119457
-0.0700063
-2.8601253
3.8938820
12.6087942
-9.9328403
-13.4056320
-3.4993384
-2.3724983
-3.2608221
-2.8165982
-2.0886588
7.4780087
-4.8152423
-9.5268011
-12.1820755
-4.3345547
-4.8780570
-8.7852678
-2.3801470
-0.0136243
-3.2554209
-3.4241922
-0.8789662
-20.3725548
-1.1992429
5.8680596
-8.0629282
31.1812382
-5.1173396
-6.3983831
-0.8216580
2.9780867
-5.4073715
5.6181302
-11.4650583
-7.1109385
-12.8207140
1.3304632
-1.7802159
-2.7780838
3.4255435
-12.8925037
-4.7393842
-3.4805088
1.8623108
-2.1409717
32.8838043
-2.8078701
-14.4085007
-16.7103996
-2.9777532
-7.5843053
1.4648907
-17.9306583
4.8809400
-8.6037245
-4.5317187
-1.0192692
-3.8361142
-0.0464848
-0.7343011
-12.6713305
-7.4197788
4.1747613
-4.5831032
5.8410349
1.5635561
-9.5955906
-3.8998795
0.0140259
-1.5152780
-1.7782999
4.8850842
1.3342426
-6.7178273
6.6374774
-2.4890187
-11.4381104
-8.2006979
3.5719552
3.6585991
-4.5582128
-2.1409569
-0.5226750
4.8015246
0.9794189
-3.6565435
5.3892913
-2.2840104
-5.5020132
5.7520866
-8.2495508
-1.7320561
2.0520270
0.4009701
-2.2507322
2.9577022
-6.1322784
0.6822672
2.2498622
-1.5092380
-3.6799269
-3.6157458
-2.7399001
0.8251635
-4.3822241
-10.8768444
-2.0404823
-0.2431551
2.8974221
-4.4363093
0.8917097
-5.7384100
-1.5303495
1.5099155
-5.7681389
-2.2517262
1.3808409
-1.5808529
-0.4337592
-2.9495299
-0.5785441
-9.3515415
-10.4953489
-1.8625853
-5.1751986
-2.7698915
2.1865745
2.0696502
1.1903924
4.5023489
1.9615840
-5.8431511
-5.9815502
1.7182828
10.6310120
-7.6670647
-0.2559162
6.0960555
7.8833189
-4.6590066
-7.6383753
-0.8665991
-0.2517274
-0.5587783
-1.6838222
-2.7415187
3.8394275
-1.9009368
6.6785150
-7.3169808
15.6013479
3.4229383
0.9890200
-7.7616420
6.6547794
0.3605370
-3.6577947
1.2584798
1.5716944
2.9372971
4.1329165
-0.5549009
-0.0395645
-6.3010941
-6.0199380
-2.1175191
-3.3978882
-10.8637800
0.2101405
-2.2572725
-10.2230673
-0.8877390
-2.9329484
17.9456406
-2.8242581
-3.6211662
-25.0295410
0.2213635
-17.4814892
-2.2926395
8.5168791
2.1422381
5.9131217
-0.5498876
-5.2555456
-10.5637531
-3.3971965
-5.5875793
10.8591099
-0.1163125
-0.0163672
-12.8815012
2.5184262
0.4934086
-18.7034607
-7.9941483
-2.1105635
-3.0592463
1.6947826
0.5124851
-0.7101362
-0.6732515
-5.7481089
-6.0999360
-0.7433386
-0.9619479
-4.4307661
1.7457732
-12.8485498
2.7476571
-0.9556562
3.2617412
0.4160113
-2.9423354
1.6430869
-0.7142486
-3.2663720
2.0796320
-1.7978791
-0.7071857
-4.3154316
0.5355023
-6.9159732
3.4895849
-4.1055379
-1.7587729
-1.4015403
-7.0969448
-1.7400005
-1.4298288
-3.5005839
2.2931919
-2.9371457
-14.5397415
6.8075185
-1.5553796
1.5460296
-0.3932246
0.3225483
-0.8000488
-1.1119472
-4.4972281
-2.4439819
-2.2691593
0.8732523
-0.7253429
-9.5719709
-1.6114858
-0.6356112
-5.5417452
-1.1885062
-2.2671049
-6.7232394
-0.8604440
0.0865424
-1.8130624
-0.8427724
-6.9971871
-46.3576050
-0.9048691
-7.7223620
-1.2049497
-0.2748264
0.5688304
-0.0360379
0.7189047
-8.3474617
-2.7874830
-2.2097809
0.5715621
-0.3285667
0.5191373
1.9403663
-2.9726295
-0.0540005
-2.1749904
3.1148472
0.5064099
1.3882530
-0.7734952
1.6102790
-2.3181283
11.3008175
0.5352513
-3.4665120
2.9869571
0.0156219
-1.9799180
0.5771489
-0.7592943
-0.4742039
-4.8474731
1.6501542
-0.8617076
-3.5853531
-6.7686515
-1.3954793
-3.0091856
-3.8701403
2.7516389
-0.7992740
5.9205503
-1.5024792
-4.3732443
-3.3896823
-0.5307094
0.3647541
0.2543015
2.5388646
1.9344665
0.4121891
0.3123243
-1.0209123
-1.1129361
2.5535691
1.1890435
1.6658404
-2.2633321
1.0100288
-1.8170447
-2.3847244
-2.1063979
-11.2254477
-16.9182968
-1.1875336
-3.0150692
-4.0873218
4.6385818
-5.9284673
-2.4893255
-0.3299960
1.2718670
-1.7575455
-6.2841387
